{"learner":{"attributes":{"scikit_learn":"{\"_estimator_type\": \"regressor\"}"},"feature_names":["f_website_exists","f_website_platform","f_website_age_months","f_mobile_responsive","f_page_load_speed","f_core_web_vitals_pass","f_has_ssl_certificate","f_total_indexed_pages","f_blog_exists","f_blog_post_frequency","f_service_pages_count","f_location_pages_count","f_contact_form_exists","f_phone_visible_above_fold","f_click_to_call_enabled","f_chat_widget_present","f_meta_descriptions_coverage","f_h1_tags_structured","f_image_alt_tags_coverage","f_schema_markup_implemented","f_google_analytics_installed","f_google_tag_manager_installed","f_facebook_pixel_installed","f_conversion_tracking_active","f_404_error_count","f_broken_internal_links","f_domain_authority","f_organic_keywords_ranking","f_monthly_lead_volume","f_lead_sources_breakdown","f_cost_per_lead","f_lead_response_time_min","f_after_hours_capture_method","f_form_conversion_rate","f_phone_answer_rate","f_voicemail_return_time_hrs","f_lead_qualification_process","f_lead_scoring_system","f_crm_system","f_crm_data_quality","f_leads_entered_in_crm_pct","f_follow_up_sequence_exists","f_follow_up_touchpoints","f_follow_up_channels","f_time_to_first_follow_up_hrs","f_lost_lead_recovery","f_referral_program_active","f_referral_rate_pct","f_online_booking_capability","f_appointment_no_show_rate","f_lead_to_appointment_cvr","f_appointment_to_close_rate","f_monthly_ad_spend","f_ad_platforms_used","f_google_ads_exists","f_google_ads_conversion_tracking","f_google_ads_quality_score","f_google_ads_ctr","f_google_ads_cpc","f_google_lsa_active","f_google_lsa_reviews_count","f_meta_ads_exists","f_meta_ads_roas","f_home_service_platforms","f_platform_cost_per_lead","f_ad_creative_last_updated_days","f_ab_testing_active","f_negative_keyword_list","f_geo_targeting_configured","f_ad_scheduling_active","f_retargeting_active","f_overall_roas","f_ad_spend_revenue_ratio","f_attribution_model","f_gbp_claimed","f_gbp_categories_correct","f_gbp_photos_count","f_gbp_posts_last_30d","f_google_reviews_count","f_google_rating","f_review_velocity_monthly","f_review_response_rate","f_review_response_time_hrs","f_yelp_claimed","f_yelp_review_count","f_yelp_rating","f_bbb_profile_exists","f_industry_review_platforms","f_review_generation_system","f_negative_review_protocol","f_nap_consistency_pct","f_citation_count","f_total_software_tools","f_connected_tools","f_manual_data_entry_hrs_week","f_documented_sops","f_project_management_tool","f_internal_communication_tool","f_scheduling_dispatch_system","f_invoicing_automated","f_payment_collection_automated","f_customer_comms_automated","f_inventory_tracking","f_employee_time_tracking","f_onboarding_documented","f_email_volume_per_day","f_owner_admin_hrs_week","f_team_admin_hrs_week","f_can_handle_2x_volume","f_biggest_bottleneck","f_last_operational_failure","f_data_backup_system","f_single_point_of_failure_identified","f_reporting_dashboard_exists","f_reports_reviewed_frequency","f_decision_making_speed","f_phone_system_type","f_phone_call_recording","f_industry_platform_used","f_industry_platform_satisfaction","f_api_access_available","f_cloud_storage_organized","f_version_control_for_docs","f_compliance_tracking_automated","f_annual_revenue_range","f_revenue_growth_trend","f_profit_margin_range","f_average_deal_size","f_cac_known","f_ltv_known","f_revenue_per_employee","f_repeat_customer_rate","f_revenue_per_customer_year","f_seasonal_revenue_variance","f_accounting_software","f_financial_reports_frequency","f_cash_flow_visibility","f_can_identify_most_profitable","f_can_identify_least_profitable","f_pricing_strategy","f_pricing_last_reviewed_months","f_revenue_forecasting_ability","f_technology_budget_monthly","f_marketing_spend_monthly","f_revenue_from_digital_pct","f_total_employees","f_employee_tenure_avg_months","f_annual_turnover_rate","f_open_positions","f_time_to_fill_weeks","f_training_program_exists","f_training_hours_per_year","f_employee_satisfaction","f_owner_hours_in_business","f_owner_hours_on_business","f_delegation_comfort","f_team_autonomous_days","f_performance_metrics_tracked","f_org_chart_exists","f_decision_rights_defined","f_team_meetings_frequency","f_remote_work_capability","f_culture_documented"],"feature_types":["int","int","int","int","float","int","int","int","int","int","int","int","int","int","int","int","float","float","float","int","int","int","int","int","int","int","int","int","int","int","int","int","int","float","float","int","int","int","int","int","float","int","int","int","int","int","int","float","int","float","float","float","int","int","int","int","float","float","float","int","int","int","float","int","int","int","int","int","int","int","int","float","int","int","int","int","int","int","int","float","int","float","int","int","int","float","int","int","int","int","float","int","int","int","int","int","int","int","int","int","int","int","int","int","int","int","int","int","int","int","int","int","int","int","int","int","int","int","int","int","int","int","int","int","int","int","int","int","int","int","int","float","int","float","int","int","int","int","int","int","int","int","int","int","float","int","int","float","int","int","int","int","int","int","int","int","int","int","int","int","int","int","int"],"gradient_booster":{"model":{"gbtree_model_param":{"num_parallel_tree":"1","num_trees":"300"},"iteration_indptr":[0,1,2,3,4,5,6,7,8,9,10,11,12,13,14,15,16,17,18,19,20,21,22,23,24,25,26,27,28,29,30,31,32,33,34,35,36,37,38,39,40,41,42,43,44,45,46,47,48,49,50,51,52,53,54,55,56,57,58,59,60,61,62,63,64,65,66,67,68,69,70,71,72,73,74,75,76,77,78,79,80,81,82,83,84,85,86,87,88,89,90,91,92,93,94,95,96,97,98,99,100,101,102,103,104,105,106,107,108,109,110,111,112,113,114,115,116,117,118,119,120,121,122,123,124,125,126,127,128,129,130,131,132,133,134,135,136,137,138,139,140,141,142,143,144,145,146,147,148,149,150,151,152,153,154,155,156,157,158,159,160,161,162,163,164,165,166,167,168,169,170,171,172,173,174,175,176,177,178,179,180,181,182,183,184,185,186,187,188,189,190,191,192,193,194,195,196,197,198,199,200,201,202,203,204,205,206,207,208,209,210,211,212,213,214,215,216,217,218,219,220,221,222,223,224,225,226,227,228,229,230,231,232,233,234,235,236,237,238,239,240,241,242,243,244,245,246,247,248,249,250,251,252,253,254,255,256,257,258,259,260,261,262,263,264,265,266,267,268,269,270,271,272,273,274,275,276,277,278,279,280,281,282,283,284,285,286,287,288,289,290,291,292,293,294,295,296,297,298,299,300],"tree_info":[0,0,0,0,0,0,0,0,0,0,0,0,0,0,0,0,0,0,0,0,0,0,0,0,0,0,0,0,0,0,0,0,0,0,0,0,0,0,0,0,0,0,0,0,0,0,0,0,0,0,0,0,0,0,0,0,0,0,0,0,0,0,0,0,0,0,0,0,0,0,0,0,0,0,0,0,0,0,0,0,0,0,0,0,0,0,0,0,0,0,0,0,0,0,0,0,0,0,0,0,0,0,0,0,0,0,0,0,0,0,0,0,0,0,0,0,0,0,0,0,0,0,0,0,0,0,0,0,0,0,0,0,0,0,0,0,0,0,0,0,0,0,0,0,0,0,0,0,0,0,0,0,0,0,0,0,0,0,0,0,0,0,0,0,0,0,0,0,0,0,0,0,0,0,0,0,0,0,0,0,0,0,0,0,0,0,0,0,0,0,0,0,0,0,0,0,0,0,0,0,0,0,0,0,0,0,0,0,0,0,0,0,0,0,0,0,0,0,0,0,0,0,0,0,0,0,0,0,0,0,0,0,0,0,0,0,0,0,0,0,0,0,0,0,0,0,0,0,0,0,0,0,0,0,0,0,0,0,0,0,0,0,0,0,0,0,0,0,0,0,0,0,0,0,0,0,0,0,0,0,0,0,0,0,0,0,0,0,0,0,0,0,0,0,0,0,0,0,0,0],"trees":[{"base_weights":[-2.1371484E-1,-9.496196E0,8.644793E0,-2.1046494E-1,-1.2910964E0,2.614715E-1,1.0631709E0],"categories":[],"categories_nodes":[],"categories_segments":[],"categories_sizes":[],"default_left":[0,0,0,0,0,0,0],"id":0,"left_children":[1,3,5,-1,-1,-1,-1],"loss_changes":[1.0113647E4,1.2276787E3,4.635835E2,0E0,0E0,0E0,0E0],"parents":[2147483647,0,0,1,1,2,2],"right_children":[2,4,6,-1,-1,-1,-1],"split_conditions":[4E1,1.18E2,1.71E2,-2.1046494E-1,-1.2910964E0,2.614715E-1,1.0631709E0],"split_indices":[28,31,78,0,0,0,0],"split_type":[0,0,0,0,0,0,0],"sum_hessian":[1.03E2,5E1,5.3E1,2.1E1,2.9E1,1.9E1,3.4E1],"tree_param":{"num_deleted":"0","num_feature":"163","num_nodes":"7","size_leaf_vector":"1"}},{"base_weights":[-3.6256215E-1,-8.935522E0,7.699652E0,-2.1094632E-1,-1.1694509E0,2.684461E-1,9.424872E-1],"categories":[],"categories_nodes":[],"categories_segments":[],"categories_sizes":[],"default_left":[0,0,0,0,0,0,0],"id":1,"left_children":[1,3,5,-1,-1,-1,-1],"loss_changes":[8.292114E3,8.3181934E2,2.7132666E2,0E0,0E0,0E0,0E0],"parents":[2147483647,0,0,1,1,2,2],"right_children":[2,4,6,-1,-1,-1,-1],"split_conditions":[8.6E1,1.18E2,1.71E2,-2.1094632E-1,-1.1694509E0,2.684461E-1,9.424872E-1],"split_indices":[78,31,78,0,0,0,0],"split_type":[0,0,0,0,0,0,0],"sum_hessian":[1E2,4.8E1,5.2E1,1.9E1,2.9E1,2E1,3.2E1],"tree_param":{"num_deleted":"0","num_feature":"163","num_nodes":"7","size_leaf_vector":"1"}},{"base_weights":[7.564853E-1,7.3862376E0,-7.691927E0,3.086823E-1,9.169181E-1,-1.4844958E-1,-1.0597647E0],"categories":[],"categories_nodes":[],"categories_segments":[],"categories_sizes":[],"default_left":[0,0,0,0,0,0,0],"id":2,"left_children":[1,3,5,-1,-1,-1,-1],"loss_changes":[6.4489805E3,1.9530688E2,7.504868E2,0E0,0E0,0E0,0E0],"parents":[2147483647,0,0,1,1,2,2],"right_children":[2,4,6,-1,-1,-1,-1],"split_conditions":[2E0,1E0,2.06E2,3.086823E-1,9.169181E-1,-1.4844958E-1,-1.0597647E0],"split_indices":[98,98,31,0,0,0,0],"split_type":[0,0,0,0,0,0,0],"sum_hessian":[9.5E1,5.4E1,4.1E1,2.4E1,3E1,1.8E1,2.3E1],"tree_param":{"num_deleted":"0","num_feature":"163","num_nodes":"7","size_leaf_vector":"1"}},{"base_weights":[-0E0,7.0493684E0,-7.276945E0,2.367992E-1,8.61636E-1,-1.0036341E0,-1.5224051E0,-2.9026795E-2,-1.9819686E-1],"categories":[],"categories_nodes":[],"categories_segments":[],"categories_sizes":[],"default_left":[0,0,0,0,0,0,0,0,0],"id":3,"left_children":[1,3,5,-1,-1,-1,7,-1,-1],"loss_changes":[6.463534E3,2.5446436E2,8.201487E2,0E0,0E0,0E0,1.0094582E1,0E0,0E0],"parents":[2147483647,0,0,1,1,2,2,6,6],"right_children":[2,4,6,-1,-1,-1,8,-1,-1],"split_conditions":[2E0,7E0,4E0,2.367992E-1,8.61636E-1,-1.0036341E0,2.53E3,-2.9026795E-2,-1.9819686E-1],"split_indices":[98,156,38,0,0,0,142,0,0],"split_type":[0,0,0,0,0,0,0,0,0],"sum_hessian":[1.06E2,5.4E1,5.2E1,2E1,3.4E1,3E1,2.2E1,1.1E1,1.1E1],"tree_param":{"num_deleted":"0","num_feature":"163","num_nodes":"9","size_leaf_vector":"1"}},{"base_weights":[6.4339116E-2,6.5240054E0,-6.7071695E0,2.3384905E-1,7.8723097E-1,-1.842901E-1,-9.1400427E-1],"categories":[],"categories_nodes":[],"categories_segments":[],"categories_sizes":[],"default_left":[0,0,0,0,0,0,0],"id":4,"left_children":[1,3,5,-1,-1,-1,-1],"loss_changes":[5.4676865E3,1.6687012E2,5.4245825E2,0E0,0E0,0E0,0E0],"parents":[2147483647,0,0,1,1,2,2],"right_children":[2,4,6,-1,-1,-1,-1],"split_conditions":[2E0,1E0,2.06E2,2.3384905E-1,7.8723097E-1,-1.842901E-1,-9.1400427E-1],"split_indices":[98,98,31,0,0,0,0],"split_type":[0,0,0,0,0,0,0],"sum_hessian":[1.05E2,5.4E1,5.1E1,2E1,3.4E1,2.3E1,2.8E1],"tree_param":{"num_deleted":"0","num_feature":"163","num_nodes":"7","size_leaf_vector":"1"}},{"base_weights":[-1.667552E-1,6.1248894E0,-6.351335E0,7.2629E-1,1.8383935E-1,-1.7974961E-1,-8.7231106E-1],"categories":[],"categories_nodes":[],"categories_segments":[],"categories_sizes":[],"default_left":[0,0,0,0,0,0,0],"id":5,"left_children":[1,3,5,-1,-1,-1,-1],"loss_changes":[5.019669E3,1.6957495E2,5.347263E2,0E0,0E0,0E0,0E0],"parents":[2147483647,0,0,1,1,2,2],"right_children":[2,4,6,-1,-1,-1,-1],"split_conditions":[2E0,4.2E1,2.06E2,7.2629E-1,1.8383935E-1,-1.7974961E-1,-8.7231106E-1],"split_indices":[98,106,31,0,0,0,0],"split_type":[0,0,0,0,0,0,0],"sum_hessian":[1.09E2,5.4E1,5.5E1,3.7E1,1.7E1,2.5E1,3E1],"tree_param":{"num_deleted":"0","num_feature":"163","num_nodes":"7","size_leaf_vector":"1"}},{"base_weights":[3.1658374E-2,5.059643E0,-5.3201346E0,2.0622896E-1,6.4265895E-1,-1.3339309E0,-7.5792897E-1,-2.0205252E-1,1.0694771E-2],"categories":[],"categories_nodes":[],"categories_segments":[],"categories_sizes":[],"default_left":[0,0,0,0,0,0,0,0,0],"id":6,"left_children":[1,3,5,-1,-1,7,-1,-1,-1],"loss_changes":[3.3365146E3,1.2119861E2,4.3031128E2,0E0,0E0,3.7710655E1,0E0,0E0,0E0],"parents":[2147483647,0,0,1,1,2,2,5,5],"right_children":[2,4,6,-1,-1,8,-1,-1,-1],"split_conditions":[2E0,7E0,2.06E2,2.0622896E-1,6.4265895E-1,7.1E-1,-7.5792897E-1,-2.0205252E-1,1.0694771E-2],"split_indices":[98,156,31,0,0,34,0,0,0],"split_type":[0,0,0,0,0,0,0,0,0],"sum_hessian":[1.04E2,5.4E1,5E1,2.5E1,2.9E1,2.4E1,2.6E1,1.4E1,1E1],"tree_param":{"num_deleted":"0","num_feature":"163","num_nodes":"9","size_leaf_vector":"1"}},{"base_weights":[-7.286353E-2,5.2998495E0,-5.26805E0,2.0545319E-1,6.245245E-1,-1.2929317E0,-7.420784E-1,-1.6722858E-1,-1.6020851E-2],"categories":[],"categories_nodes":[],"categories_segments":[],"categories_sizes":[],"default_left":[0,0,0,0,0,0,0,0,0],"id":7,"left_children":[1,3,5,-1,-1,7,-1,-1,-1],"loss_changes":[3.2378655E3,3.827185E1,4.0022546E2,0E0,0E0,9.668571E0,0E0,0E0,0E0],"parents":[2147483647,0,0,1,1,2,2,5,5],"right_children":[2,4,6,-1,-1,8,-1,-1,-1],"split_conditions":[2E0,8.6E1,2.06E2,2.0545319E-1,6.245245E-1,6.9E-1,-7.420784E-1,-1.6722858E-1,-1.6020851E-2],"split_indices":[98,28,31,0,0,34,0,0,0],"split_type":[0,0,0,0,0,0,0,0,0],"sum_hessian":[9.6E1,4.7E1,4.9E1,1.8E1,2.9E1,2.3E1,2.6E1,1.3E1,1E1],"tree_param":{"num_deleted":"0","num_feature":"163","num_nodes":"9","size_leaf_vector":"1"}},{"base_weights":[-3.928004E-2,4.764487E0,-5.0132923E0,1.7653102E-1,5.8456963E-1,-1.2924505E0,-7.107062E-1,-2.4941234E-2,-1.5814613E-1],"categories":[],"categories_nodes":[],"categories_segments":[],"categories_sizes":[],"default_left":[0,0,0,0,0,0,0,0,0],"id":8,"left_children":[1,3,5,-1,-1,7,-1,-1,-1],"loss_changes":[2.915234E3,9.024402E1,3.6718018E2,0E0,0E0,4.474041E0,0E0,0E0,0E0],"parents":[2147483647,0,0,1,1,2,2,5,5],"right_children":[2,4,6,-1,-1,8,-1,-1,-1],"split_conditions":[1E0,8.6E1,1E0,1.7653102E-1,5.8456963E-1,1.9E1,-7.107062E-1,-2.4941234E-2,-1.5814613E-1],"split_indices":[108,28,32,0,0,151,0,0,0],"split_type":[0,0,0,0,0,0,0,0,0],"sum_hessian":[1.02E2,5.2E1,5E1,2.1E1,3.1E1,2.4E1,2.6E1,1E1,1.4E1],"tree_param":{"num_deleted":"0","num_feature":"163","num_nodes":"9","size_leaf_vector":"1"}},{"base_weights":[1.8200357E-1,-4.3363833E0,4.7590947E0,-1.1647269E0,-6.3090175E-1,6.722456E-2,5.3844917E-1,-1.5210633E-1,-5.1309397E-3],"categories":[],"categories_nodes":[],"categories_segments":[],"categories_sizes":[],"default_left":[0,0,0,0,0,0,0,0,0],"id":9,"left_children":[1,3,5,7,-1,-1,-1,-1,-1],"loss_changes":[2.6264802E3,3.1946057E2,1.1876819E2,1.2326969E1,0E0,0E0,0E0,0E0,0E0],"parents":[2147483647,0,0,1,1,2,2,3,3],"right_children":[2,4,6,8,-1,-1,-1,-1,-1],"split_conditions":[4.4E1,5.4E1,3.768E0,2.9E1,-6.3090175E-1,6.722456E-2,5.3844917E-1,-1.5210633E-1,-5.1309397E-3],"split_indices":[28,153,62,28,0,0,0,0,0],"split_type":[0,0,0,0,0,0,0,0,0],"sum_hessian":[1.07E2,5.4E1,5.3E1,2.7E1,2.7E1,1E1,4.3E1,1.7E1,1E1],"tree_param":{"num_deleted":"0","num_feature":"163","num_nodes":"9","size_leaf_vector":"1"}},{"base_weights":[-8.2697436E-2,3.9647913E0,-4.3226156E0,1.3510675E0,5.086157E-1,-1.1383628E0,-5.923577E-1,1.8591766E-1,2.5624285E-2,-1.5127043E-1,-6.9971657E-3],"categories":[],"categories_nodes":[],"categories_segments":[],"categories_sizes":[],"default_left":[0,0,0,0,0,0,0,0,0,0,0],"id":10,"left_children":[1,3,5,7,-1,9,-1,-1,-1,-1,-1],"loss_changes":[2.2482244E3,1.2121826E2,2.5176965E2,1.2034458E1,0E0,1.0956924E1,0E0,0E0,0E0,0E0,0E0],"parents":[2147483647,0,0,1,1,2,2,3,3,5,5],"right_children":[2,4,6,8,-1,10,-1,-1,-1,-1,-1],"split_conditions":[2E0,8.8E1,2.06E2,6.2E-1,5.086157E-1,6.8E-1,-5.923577E-1,1.8591766E-1,2.5624285E-2,-1.5127043E-1,-6.9971657E-3],"split_indices":[126,28,31,18,0,34,0,0,0,0,0],"split_type":[0,0,0,0,0,0,0,0,0,0,0],"sum_hessian":[1.11E2,5.7E1,5.4E1,2.4E1,3.3E1,2.4E1,3E1,1.1E1,1.3E1,1.4E1,1E1],"tree_param":{"num_deleted":"0","num_feature":"163","num_nodes":"11","size_leaf_vector":"1"}},{"base_weights":[-6.506486E-2,-4.2527184E0,3.7182193E0,-1.1868733E-1,-5.5621284E-1,4.3891335E-1,1.0368667E-1],"categories":[],"categories_nodes":[],"categories_segments":[],"categories_sizes":[],"default_left":[0,0,0,0,0,0,0],"id":11,"left_children":[1,3,5,-1,-1,-1,-1],"loss_changes":[1.901399E3,1.5605908E2,6.2398865E1,0E0,0E0,0E0,0E0],"parents":[2147483647,0,0,1,1,2,2],"right_children":[2,4,6,-1,-1,-1,-1],"split_conditions":[8.6E1,2.06E2,2.5E1,-1.1868733E-1,-5.5621284E-1,4.3891335E-1,1.0368667E-1],"split_indices":[78,31,31,0,0,0,0],"split_type":[0,0,0,0,0,0,0],"sum_hessian":[1E2,4.7E1,5.3E1,2E1,2.7E1,3.7E1,1.6E1],"tree_param":{"num_deleted":"0","num_feature":"163","num_nodes":"7","size_leaf_vector":"1"}},{"base_weights":[2.0900557E-2,-4.1537614E0,2.7958927E0,-9.670237E-2,-4.898913E-1,4.0612102E-1,5.0211567E-1,9.719049E-2,-2.3586966E-2],"categories":[],"categories_nodes":[],"categories_segments":[],"categories_sizes":[],"default_left":[0,0,0,0,0,0,0,0,0],"id":12,"left_children":[1,3,5,-1,-1,-1,7,-1,-1],"loss_changes":[1.4238428E3,6.3116028E1,1.8981909E2,0E0,0E0,0E0,1.6202972E1,0E0,0E0],"parents":[2147483647,0,0,1,1,2,2,6,6],"right_children":[2,4,6,-1,-1,-1,8,-1,-1],"split_conditions":[2.9E1,1.12E2,4.2E1,-9.670237E-2,-4.898913E-1,4.0612102E-1,1E1,9.719049E-2,-2.3586966E-2],"split_indices":[28,31,106,0,0,0,24,0,0],"split_type":[0,0,0,0,0,0,0,0,0],"sum_hessian":[1.03E2,3.9E1,6.4E1,1.2E1,2.7E1,3.6E1,2.8E1,1.6E1,1.2E1],"tree_param":{"num_deleted":"0","num_feature":"163","num_nodes":"9","size_leaf_vector":"1"}},{"base_weights":[2.3177187E-1,-3.1739826E0,3.508491E0,-4.4415218E-1,-7.222765E-1,1.2717603E-1,4.0983477E-1,-1.3206215E-1,2.7695848E-2],"categories":[],"categories_nodes":[],"categories_segments":[],"categories_sizes":[],"default_left":[0,0,0,0,0,0,0,0,0],"id":13,"left_children":[1,3,5,-1,7,-1,-1,-1,-1],"loss_changes":[1.3838993E3,1.5232172E2,2.5627869E1,0E0,2.4431515E1,0E0,0E0,0E0,0E0],"parents":[2147483647,0,0,1,1,2,2,4,4],"right_children":[2,4,6,-1,8,-1,-1,-1,-1],"split_conditions":[8.6E1,4E0,1.75E2,-4.4415218E-1,7E-1,1.2717603E-1,4.0983477E-1,-1.3206215E-1,2.7695848E-2],"split_indices":[78,38,78,0,34,0,0,0,0],"split_type":[0,0,0,0,0,0,0,0,0],"sum_hessian":[1.04E2,5.1E1,5.3E1,2.8E1,2.3E1,1.8E1,3.5E1,1.3E1,1E1],"tree_param":{"num_deleted":"0","num_feature":"163","num_nodes":"9","size_leaf_vector":"1"}},{"base_weights":[-3.5352126E-2,-3.2673433E0,3.2383409E0,-7.104863E-1,-4.7362E-1,1.0255964E0,4.097162E-1,-1.2536326E-1,2.0096008E-2,1.3042317E-1,1.7023107E-2],"categories":[],"categories_nodes":[],"categories_segments":[],"categories_sizes":[],"default_left":[0,0,0,0,0,0,0,0,0,0,0],"id":14,"left_children":[1,3,5,7,-1,9,-1,-1,-1,-1,-1],"loss_changes":[1.3225995E3,1.9750964E2,7.067871E1,2.0898678E1,0E0,3.6937141E0,0E0,0E0,0E0,0E0,0E0],"parents":[2147483647,0,0,1,1,2,2,3,3,5,5],"right_children":[2,4,6,8,-1,10,-1,-1,-1,-1,-1],"split_conditions":[8.6E1,5.4E1,1.75E2,1E0,-4.7362E-1,1.12E2,4.097162E-1,-1.2536326E-1,2.0096008E-2,1.3042317E-1,1.7023107E-2],"split_indices":[78,106,78,138,0,64,0,0,0,0,0],"split_type":[0,0,0,0,0,0,0,0,0,0,0],"sum_hessian":[1.05E2,5.3E1,5.2E1,2.5E1,2.8E1,2.1E1,3.1E1,1.4E1,1.1E1,1.1E1,1E1],"tree_param":{"num_deleted":"0","num_feature":"163","num_nodes":"11","size_leaf_vector":"1"}},{"base_weights":[1.6120881E-1,2.8313704E0,-2.6526623E0,4.364664E-2,3.3467522E0,-3.455356E0,-3.547937E-2,1.1684566E-1,3.841518E-1,-3.9262554E-1,-1.0447687E-1],"categories":[],"categories_nodes":[],"categories_segments":[],"categories_sizes":[],"default_left":[0,0,0,0,0,0,0,0,0,0,0],"id":15,"left_children":[1,3,5,-1,7,9,-1,-1,-1,-1,-1],"loss_changes":[9.243098E2,5.936963E1,9.459952E1,0E0,3.9909058E0,2.8198853E0,0E0,0E0,0E0,0E0,0E0],"parents":[2147483647,0,0,1,1,2,2,4,4,5,5],"right_children":[2,4,6,-1,8,10,-1,-1,-1,-1,-1],"split_conditions":[2E0,1E0,1E0,4.364664E-2,1E0,1E0,-3.547937E-2,1.1684566E-1,3.841518E-1,-3.9262554E-1,-1.0447687E-1],"split_indices":[98,14,138,0,98,8,0,0,0,0,0],"split_type":[0,0,0,0,0,0,0,0,0,0,0],"sum_hessian":[1.03E2,5.3E1,5E1,1.3E1,4E1,3.3E1,1.7E1,1.4E1,2.6E1,2.2E1,1.1E1],"tree_param":{"num_deleted":"0","num_feature":"163","num_nodes":"11","size_leaf_vector":"1"}},{"base_weights":[1.603618E-1,2.40099E0,-2.2989101E0,4.7808323E-2,2.675444E0,-3.1232348E-1,-5.650389E-1,3.026625E-1,6.0291883E-2,-1.8463135E-3,-7.790953E-2],"categories":[],"categories_nodes":[],"categories_segments":[],"categories_sizes":[],"default_left":[0,0,0,0,0,0,0,0,0,0,0],"id":16,"left_children":[1,3,5,-1,7,-1,9,-1,-1,-1,-1],"loss_changes":[6.22861E2,1.519281E1,5.584494E1,0E0,1.3786133E1,0E0,2.5685368E0,0E0,0E0,0E0,0E0],"parents":[2147483647,0,0,1,1,2,2,4,4,6,6],"right_children":[2,4,6,-1,8,-1,10,-1,-1,-1,-1],"split_conditions":[2E0,1.5E1,1.9E1,4.7808323E-2,5.7E-2,-3.1232348E-1,2E1,3.026625E-1,6.0291883E-2,-1.8463135E-3,-7.790953E-2],"split_indices":[98,84,28,0,33,0,151,0,0,0,0],"split_type":[0,0,0,0,0,0,0,0,0,0,0],"sum_hessian":[9.3E1,4.9E1,4.4E1,1E1,3.9E1,2.4E1,2E1,2.9E1,1E1,1E1,1E1],"tree_param":{"num_deleted":"0","num_feature":"163","num_nodes":"11","size_leaf_vector":"1"}},{"base_weights":[-2.3172478E-1,2.3365798E0,-2.7780752E0,2.6201994E0,4.0924035E-2,-4.1657344E-1,-6.6804284E-1,9.260022E-2,3.1157038E-1,8.467171E-3,-1.1213466E-1],"categories":[],"categories_nodes":[],"categories_segments":[],"categories_sizes":[],"default_left":[0,0,0,0,0,0,0,0,0,0,0],"id":17,"left_children":[1,3,5,7,-1,-1,9,-1,-1,-1,-1],"loss_changes":[7.8473175E2,1.9045563E1,1.4301767E2,9.080902E0,0E0,0E0,1.426964E1,0E0,0E0,0E0,0E0],"parents":[2147483647,0,0,1,1,2,2,3,3,6,6],"right_children":[2,4,6,8,-1,-1,10,-1,-1,-1,-1],"split_conditions":[2E0,4.2E0,1.84E0,1E0,4.0924035E-2,-4.1657344E-1,1.2E1,9.260022E-2,3.1157038E-1,8.467171E-3,-1.1213466E-1],"split_indices":[98,85,62,97,0,0,60,0,0,0,0],"split_type":[0,0,0,0,0,0,0,0,0,0,0],"sum_hessian":[1E2,5E1,5E1,4E1,1E1,2.4E1,2.6E1,1.6E1,2.4E1,1.2E1,1.4E1],"tree_param":{"num_deleted":"0","num_feature":"163","num_nodes":"11","size_leaf_vector":"1"}},{"base_weights":[-5.951597E-2,-2.630972E0,2.1101031E0,-3.647945E-1,-7.287897E-1,4.0410522E-1,2.924315E-1,-0E0,-1.05087854E-1,-8.296299E-3,6.954231E-2],"categories":[],"categories_nodes":[],"categories_segments":[],"categories_sizes":[],"default_left":[0,0,0,0,0,0,0,0,0,0,0],"id":18,"left_children":[1,3,5,-1,7,9,-1,-1,-1,-1,-1],"loss_changes":[6.6973584E2,7.543317E1,7.514209E1,0E0,7.299303E0,5.87183E0,0E0,0E0,0E0,0E0,0E0],"parents":[2147483647,0,0,1,1,2,2,4,4,5,5],"right_children":[2,4,6,-1,8,10,-1,-1,-1,-1,-1],"split_conditions":[7.6E1,4.3E0,7E0,-3.647945E-1,1.9E1,3E0,2.924315E-1,-0E0,-1.05087854E-1,-8.296299E-3,6.954231E-2],"split_indices":[78,79,156,0,151,155,0,0,0,0,0],"split_type":[0,0,0,0,0,0,0,0,0,0,0],"sum_hessian":[1E2,4.5E1,5.5E1,2.3E1,2.2E1,2.3E1,3.2E1,1E1,1.2E1,1E1,1.3E1],"tree_param":{"num_deleted":"0","num_feature":"163","num_nodes":"11","size_leaf_vector":"1"}},{"base_weights":[8.633666E-3,-2.456873E0,1.8442062E0,-3.17255E-1,-5.1004954E-2,3.259356E-1,9.1580427E-1,1.2789445E0,-3.273205E-2,1.7676618E-2,1.5462674E-1],"categories":[],"categories_nodes":[],"categories_segments":[],"categories_sizes":[],"default_left":[0,0,0,0,0,0,0,0,0,0,0],"id":19,"left_children":[1,3,5,-1,-1,-1,7,9,-1,-1,-1],"loss_changes":[5.4251495E2,5.119394E1,5.6629623E1,0E0,0E0,0E0,3.0417881E1,9.097015E0,0E0,0E0,0E0],"parents":[2147483647,0,0,1,1,2,2,6,6,7,7],"right_children":[2,4,6,-1,-1,-1,8,10,-1,-1,-1],"split_conditions":[5.5E1,4.2E0,9E0,-3.17255E-1,-5.1004954E-2,3.259356E-1,3.559E3,1E0,-3.273205E-2,1.7676618E-2,1.5462674E-1],"split_indices":[78,79,31,0,0,0,142,22,0,0,0],"split_type":[0,0,0,0,0,0,0,0,0,0,0],"sum_hessian":[1E2,4.1E1,5.9E1,2.5E1,1.6E1,1.3E1,4.6E1,3.6E1,1E1,1.1E1,2.5E1],"tree_param":{"num_deleted":"0","num_feature":"163","num_nodes":"11","size_leaf_vector":"1"}},{"base_weights":[-6.2414017E-2,-1.8802065E0,2.1057332E0,-4.555148E-1,-3.2648647E-1,3.4244996E-2,2.3928707E0,-8.739979E-1,2.8129429E-2,6.380402E-2,2.7335203E-1,-1.0685223E-1,-1.7302208E-2],"categories":[],"categories_nodes":[],"categories_segments":[],"categories_sizes":[],"default_left":[0,0,0,0,0,0,0,0,0,0,0,0,0],"id":20,"left_children":[1,3,5,7,-1,-1,9,11,-1,-1,-1,-1,-1],"loss_changes":[4.847269E2,1.1357933E2,1.7423355E1,1.6926607E1,0E0,0E0,6.6854553E0,1.2730961E0,0E0,0E0,0E0,0E0,0E0],"parents":[2147483647,0,0,1,1,2,2,3,3,6,6,7,7],"right_children":[2,4,6,8,-1,-1,10,12,-1,-1,-1,-1,-1],"split_conditions":[1.4E1,2.88E2,1E0,2.9E1,-3.2648647E-1,3.4244996E-2,7.6E1,1E0,2.8129429E-2,6.380402E-2,2.7335203E-1,-1.0685223E-1,-1.7302208E-2],"split_indices":[145,31,14,7,0,0,28,158,0,0,0,0,0],"split_type":[0,0,0,0,0,0,0,0,0,0,0,0,0],"sum_hessian":[1.03E2,5.7E1,4.6E1,3.5E1,2.2E1,1E1,3.6E1,2.2E1,1.3E1,1.1E1,2.5E1,1.2E1,1E1],"tree_param":{"num_deleted":"0","num_feature":"163","num_nodes":"13","size_leaf_vector":"1"}},{"base_weights":[-0E0,-1.7019435E0,2.0749092E0,-5.900594E-1,-3.1043622E-1,9.3440515E-1,2.861431E-1,-1.0408229E-1,3.2855276E-2,2.0834541E-2,1.0891142E-1],"categories":[],"categories_nodes":[],"categories_segments":[],"categories_sizes":[],"default_left":[0,0,0,0,0,0,0,0,0,0,0],"id":21,"left_children":[1,3,5,7,-1,9,-1,-1,-1,-1,-1],"loss_changes":[4.1645795E2,7.934427E1,1.700943E1,2.4421686E1,0E0,5.8955765E-1,0E0,0E0,0E0,0E0,0E0],"parents":[2147483647,0,0,1,1,2,2,3,3,5,5],"right_children":[2,4,6,8,-1,10,-1,-1,-1,-1,-1],"split_conditions":[1.4E1,3.28E2,3.4E2,1E0,-3.1043622E-1,1.6E-1,2.861431E-1,-1.0408229E-1,3.2855276E-2,2.0834541E-2,1.0891142E-1],"split_indices":[145,31,78,122,0,49,0,0,0,0,0],"split_type":[0,0,0,0,0,0,0,0,0,0,0],"sum_hessian":[9.8E1,5.5E1,4.3E1,3.9E1,1.6E1,2.7E1,1.6E1,2.6E1,1.3E1,1E1,1.7E1],"tree_param":{"num_deleted":"0","num_feature":"163","num_nodes":"11","size_leaf_vector":"1"}},{"base_weights":[-1.4868586E-1,-1.944271E0,2.0801623E0,-6.643998E-1,-3.4018907E-1,1.0695589E0,2.977715E-1,-1.0639735E0,5.9828246E-3,1.2322511E-1,2.7246147E-2,-1.3408338E-1,-3.1715013E-2],"categories":[],"categories_nodes":[],"categories_segments":[],"categories_sizes":[],"default_left":[0,0,0,0,0,0,0,0,0,0,0,0,0],"id":22,"left_children":[1,3,5,7,-1,9,-1,11,-1,-1,-1,-1,-1],"loss_changes":[4.9254385E2,1.0019E2,1.3993134E1,1.582044E1,0E0,5.845032E-1,0E0,9.1282654E-1,0E0,0E0,0E0,0E0,0E0],"parents":[2147483647,0,0,1,1,2,2,3,3,5,5,7,7],"right_children":[2,4,6,8,-1,10,-1,12,-1,-1,-1,-1,-1],"split_conditions":[1.4E1,6.2E1,1E0,8.5E3,-3.4018907E-1,1E1,2.977715E-1,2.704E0,5.9828246E-3,1.2322511E-1,2.7246147E-2,-1.3408338E-1,-3.1715013E-2],"split_indices":[145,106,96,127,0,156,0,62,0,0,0,0,0],"split_type":[0,0,0,0,0,0,0,0,0,0,0,0,0],"sum_hessian":[1.03E2,5.8E1,4.5E1,3.9E1,1.9E1,3.2E1,1.3E1,2.3E1,1.6E1,2.1E1,1.1E1,1E1,1.3E1],"tree_param":{"num_deleted":"0","num_feature":"163","num_nodes":"13","size_leaf_vector":"1"}},{"base_weights":[-2.0923447E-2,-1.7885458E0,1.9768751E0,-4.033655E-1,-2.738183E-1,1.0106744E0,3.0530787E-1,-9.042449E-2,3.4924354E-2,1.1572405E-1,2.3750488E-2],"categories":[],"categories_nodes":[],"categories_segments":[],"categories_sizes":[],"default_left":[0,0,0,0,0,0,0,0,0,0,0],"id":23,"left_children":[1,3,5,7,-1,9,-1,-1,-1,-1,-1],"loss_changes":[4.377433E2,7.263121E1,2.5389633E1,1.8414703E1,0E0,1.0694962E0,0E0,0E0,0E0,0E0,0E0],"parents":[2147483647,0,0,1,1,2,2,3,3,5,5],"right_children":[2,4,6,8,-1,10,-1,-1,-1,-1,-1],"split_conditions":[1.4E1,5.3E1,6.24E0,1E0,-2.738183E-1,4.2E0,3.0530787E-1,-9.042449E-2,3.4924354E-2,1.1572405E-1,2.3750488E-2],"split_indices":[145,106,62,138,0,85,0,0,0,0,0],"split_type":[0,0,0,0,0,0,0,0,0,0,0],"sum_hessian":[1.04E2,5.6E1,4.8E1,2.9E1,2.7E1,3.6E1,1.2E1,1.7E1,1.2E1,2.5E1,1.1E1],"tree_param":{"num_deleted":"0","num_feature":"163","num_nodes":"11","size_leaf_vector":"1"}},{"base_weights":[-1.4077167E-1,-1.5720855E0,1.642668E0,-4.4588766E-1,-2.56699E-1,-2.4747278E-3,2.0499775E0,-8.641318E-2,3.1968918E-2,7.136799E-2,2.5229764E-1],"categories":[],"categories_nodes":[],"categories_segments":[],"categories_sizes":[],"default_left":[0,0,0,0,0,0,0,0,0,0,0],"id":24,"left_children":[1,3,5,7,-1,-1,9,-1,-1,-1,-1],"loss_changes":[3.0909903E2,6.0611984E1,3.9206894E1,1.739569E1,0E0,0E0,6.5683136E0,0E0,0E0,0E0,0E0],"parents":[2147483647,0,0,1,1,2,2,3,3,6,6],"right_children":[2,4,6,8,-1,-1,10,-1,-1,-1,-1],"split_conditions":[4.8E1,3.15E2,1E0,7.3E-1,-2.56699E-1,-2.4747278E-3,3.4E2,-8.641318E-2,3.1968918E-2,7.136799E-2,2.5229764E-1],"split_indices":[28,31,14,34,0,0,78,0,0,0,0],"split_type":[0,0,0,0,0,0,0,0,0,0,0],"sum_hessian":[1.01E2,5.7E1,4.4E1,3.4E1,2.3E1,1E1,3.4E1,2.2E1,1.2E1,1.6E1,1.8E1],"tree_param":{"num_deleted":"0","num_feature":"163","num_nodes":"11","size_leaf_vector":"1"}},{"base_weights":[-1.292024E-2,-1.5643809E0,1.7765832E0,-3.0713728E-1,-6.980171E-1,4.953709E-2,2.2389646E0,-9.2315674E-1,9.62986E-3,6.926091E-2,2.6641718E-1,-1.42282015E-2,-1.2068043E-1],"categories":[],"categories_nodes":[],"categories_segments":[],"categories_sizes":[],"default_left":[0,0,0,0,0,0,0,0,0,0,0,0,0],"id":25,"left_children":[1,3,5,-1,7,-1,9,11,-1,-1,-1,-1,-1],"loss_changes":[3.3020184E2,5.8350494E1,1.8756973E1,0E0,1.1372768E1,0E0,2.5191956E0,6.6795464E0,0E0,0E0,0E0,0E0,0E0],"parents":[2147483647,0,0,1,1,2,2,4,4,6,6,7,7],"right_children":[2,4,6,-1,8,-1,10,12,-1,-1,-1,-1,-1],"split_conditions":[1.4E1,1.5E1,1E0,-3.0713728E-1,5E1,4.953709E-2,1E0,1.1E1,9.62986E-3,6.926091E-2,2.6641718E-1,-1.42282015E-2,-1.2068043E-1],"split_indices":[145,78,3,0,146,0,138,25,0,0,0,0,0],"split_type":[0,0,0,0,0,0,0,0,0,0,0,0,0],"sum_hessian":[9.9E1,5.4E1,4.5E1,1E1,4.4E1,1.8E1,2.7E1,3.4E1,1E1,1.2E1,1.5E1,1.4E1,2E1],"tree_param":{"num_deleted":"0","num_feature":"163","num_nodes":"13","size_leaf_vector":"1"}},{"base_weights":[-3.0655825E-1,-2.0638547E0,8.8581514E-1,-2.5666842E-1,-3.7973505E-2,-1.4405882E-1,1.3980155E0,-4.955429E-2,2.6460305E-2,2.1934146E-2,1.6939797E-1],"categories":[],"categories_nodes":[],"categories_segments":[],"categories_sizes":[],"default_left":[0,0,0,0,0,0,0,0,0,0,0],"id":26,"left_children":[1,3,5,-1,-1,7,9,-1,-1,-1,-1],"loss_changes":[2.4575815E2,2.7107758E1,4.0720543E1,0E0,0E0,6.1385813E0,1.14645E1,0E0,0E0,0E0,0E0],"parents":[2147483647,0,0,1,1,2,2,5,5,6,6],"right_children":[2,4,6,-1,-1,8,10,-1,-1,-1,-1],"split_conditions":[8E0,1.84E0,1.4E1,-2.5666842E-1,-3.7973505E-2,6.8E-1,1E0,-4.955429E-2,2.6460305E-2,2.1934146E-2,1.6939797E-1],"split_indices":[145,62,145,0,0,34,99,0,0,0,0],"split_type":[0,0,0,0,0,0,0,0,0,0,0],"sum_hessian":[9.8E1,3.7E1,6.1E1,2.4E1,1.3E1,2.2E1,3.9E1,1.2E1,1E1,1.2E1,2.7E1],"tree_param":{"num_deleted":"0","num_feature":"163","num_nodes":"11","size_leaf_vector":"1"}},{"base_weights":[2.0500049E-2,-1.0857216E0,1.1952827E0,-1.426571E0,3.1039009E-2,4.989881E-1,2.2031689E-1,-1.7636389E0,-1.7663939E-2,7.710097E-1,-1.0025787E-2,-7.581356E-2,-2.3400743E-1,9.3996994E-2,1.5509996E-2],"categories":[],"categories_nodes":[],"categories_segments":[],"categories_sizes":[],"default_left":[0,0,0,0,0,0,0,0,0,0,0,0,0,0,0],"id":27,"left_children":[1,3,5,7,-1,9,-1,11,-1,13,-1,-1,-1,-1,-1],"loss_changes":[1.5993842E2,3.5523544E1,2.8411438E1,1.7273964E1,0E0,9.431134E0,0E0,2.3451614E0,0E0,1.1933498E0,0E0,0E0,0E0,0E0,0E0],"parents":[2147483647,0,0,1,1,2,2,3,3,5,5,7,7,9,9],"right_children":[2,4,6,8,-1,10,-1,12,-1,14,-1,-1,-1,-1,-1],"split_conditions":[4.5E0,1E0,4.87E2,1E0,3.1039009E-2,1.2E1,2.2031689E-1,6.2E1,-1.7663939E-2,1.8E1,-1.0025787E-2,-7.581356E-2,-2.3400743E-1,9.3996994E-2,1.5509996E-2],"split_indices":[79,122,78,99,0,25,0,153,0,94,0,0,0,0,0],"split_type":[0,0,0,0,0,0,0,0,0,0,0,0,0,0,0],"sum_hessian":[1.03E2,5.3E1,5E1,4.3E1,1E1,3.9E1,1.1E1,3E1,1.3E1,2.6E1,1.3E1,2E1,1E1,1.5E1,1.1E1],"tree_param":{"num_deleted":"0","num_feature":"163","num_nodes":"15","size_leaf_vector":"1"}},{"base_weights":[6.6053525E-2,-9.5929414E-1,1.407345E0,-1.4458119E0,2.9596005E-2,1.0175008E-2,1.7812259E0,-2.1182072E-1,-4.3742394E-1,6.1739422E-2,2.2581995E-1,-0E0,-6.1216783E-2],"categories":[],"categories_nodes":[],"categories_segments":[],"categories_sizes":[],"default_left":[0,0,0,0,0,0,0,0,0,0,0,0,0],"id":28,"left_children":[1,3,5,7,-1,-1,9,-1,11,-1,-1,-1,-1],"loss_changes":[1.6798114E2,4.756741E1,2.2175873E1,2.343666E1,0E0,0E0,5.3871E0,0E0,2.4884372E0,0E0,0E0,0E0,0E0],"parents":[2147483647,0,0,1,1,2,2,3,3,6,6,8,8],"right_children":[2,4,6,8,-1,-1,10,-1,12,-1,-1,-1,-1],"split_conditions":[1.4E1,1E0,4.9E-1,4.3E0,2.9596005E-2,1.0175008E-2,3.4E2,-2.1182072E-1,3.8E0,6.1739422E-2,2.2581995E-1,-0E0,-6.1216783E-2],"split_indices":[145,122,16,79,0,0,78,0,56,0,0,0,0],"split_type":[0,0,0,0,0,0,0,0,0,0,0,0,0],"sum_hessian":[1.02E2,5.9E1,4.3E1,4.2E1,1.7E1,1.3E1,3E1,1.8E1,2.4E1,1.6E1,1.4E1,1E1,1.4E1],"tree_param":{"num_deleted":"0","num_feature":"163","num_nodes":"13","size_leaf_vector":"1"}},{"base_weights":[6.6302374E-2,-1.3798505E0,1.0734614E0,-3.8095844E-1,-2.1937585E-1,-7.940756E-3,1.4690002E0,1.7272139E-2,-8.572645E-2,2.415527E-2,1.7204189E0,3.8843956E-2,2.0076947E-1],"categories":[],"categories_nodes":[],"categories_segments":[],"categories_sizes":[],"default_left":[0,0,0,0,0,0,0,0,0,0,0,0,0],"id":29,"left_children":[1,3,5,7,-1,-1,9,-1,-1,-1,11,-1,-1],"loss_changes":[1.8491695E2,3.13443E1,3.675643E1,1.1659178E1,0E0,0E0,1.1472687E1,0E0,0E0,0E0,7.024246E0,0E0,0E0],"parents":[2147483647,0,0,1,1,2,2,3,3,6,6,10,10],"right_children":[2,4,6,8,-1,-1,10,-1,-1,-1,12,-1,-1],"split_conditions":[5.5E1,6.2E1,1E0,2.1E1,-2.1937585E-1,-7.940756E-3,1E0,1.7272139E-2,-8.572645E-2,2.415527E-2,2E0,3.8843956E-2,2.0076947E-1],"split_indices":[78,106,14,151,0,0,137,0,0,0,1,0,0],"split_type":[0,0,0,0,0,0,0,0,0,0,0,0,0],"sum_hessian":[1.07E2,4.2E1,6.5E1,2.6E1,1.6E1,1.8E1,4.7E1,1.4E1,1.2E1,1.2E1,3.5E1,1.1E1,2.4E1],"tree_param":{"num_deleted":"0","num_feature":"163","num_nodes":"13","size_leaf_vector":"1"}},{"base_weights":[-0E0,-1.0189012E0,1.1637756E0,-2.1215191E-1,-2.948273E-1,4.303122E-1,2.0895982E-1,-5.1634246E-1,2.3042953E-2,-1.3744354E-2,6.603691E-1,-0E0,-7.878198E-2,-0E0,9.3986355E-2],"categories":[],"categories_nodes":[],"categories_segments":[],"categories_sizes":[],"default_left":[0,0,0,0,0,0,0,0,0,0,0,0,0,0,0],"id":30,"left_children":[1,3,5,-1,7,9,-1,11,-1,-1,13,-1,-1,-1,-1],"loss_changes":[1.4571783E2,4.4021706E1,2.719455E1,0E0,7.5260396E0,7.3082857E0,0E0,6.447487E0,0E0,0E0,5.9371853E0,0E0,0E0,0E0,0E0],"parents":[2147483647,0,0,1,1,2,2,4,4,5,5,7,7,10,10],"right_children":[2,4,6,-1,8,10,-1,12,-1,-1,14,-1,-1,-1,-1],"split_conditions":[1.4E1,4E0,3E0,-2.1215191E-1,1E0,2E0,2.0895982E-1,2.1E1,2.3042953E-2,-1.3744354E-2,6.4E-1,-0E0,-7.878198E-2,-0E0,9.3986355E-2],"split_indices":[145,79,124,0,45,1,0,151,0,0,90,0,0,0,0],"split_type":[0,0,0,0,0,0,0,0,0,0,0,0,0,0,0],"sum_hessian":[1.03E2,5.6E1,4.7E1,1.4E1,4.2E1,3.5E1,1.2E1,3.1E1,1.1E1,1E1,2.5E1,1.3E1,1.8E1,1.1E1,1.4E1],"tree_param":{"num_deleted":"0","num_feature":"163","num_nodes":"15","size_leaf_vector":"1"}},{"base_weights":[-1.2902279E-1,-2.4943347E-1,3.2863554E-1,-3.2170796E-1,1.1446759E0,-6.311428E-1,3.858449E-2,1.0207132E-2,1.5889473E-1,-0E0,-9.396048E-2],"categories":[],"categories_nodes":[],"categories_segments":[],"categories_sizes":[],"default_left":[0,0,0,0,0,0,0,0,0,0,0],"id":31,"left_children":[1,-1,3,5,7,9,-1,-1,-1,-1,-1],"loss_changes":[1.3376851E2,0E0,5.969895E1,1.6911726E1,1.9383896E1,9.217226E0,0E0,0E0,0E0,0E0,0E0],"parents":[2147483647,0,0,2,2,3,3,4,4,5,5],"right_children":[2,-1,4,6,8,10,-1,-1,-1,-1,-1],"split_conditions":[8E0,-2.4943347E-1,1E0,8.5E1,6.3E-1,3E0,3.858449E-2,1.0207132E-2,1.5889473E-1,-0E0,-9.396048E-2],"split_indices":[28,0,138,28,90,118,0,0,0,0,0],"split_type":[0,0,0,0,0,0,0,0,0,0,0],"sum_hessian":[1.04E2,1E1,9.4E1,5.5E1,3.9E1,4E1,1.5E1,1.6E1,2.3E1,1.7E1,2.3E1],"tree_param":{"num_deleted":"0","num_feature":"163","num_nodes":"11","size_leaf_vector":"1"}},{"base_weights":[-1.4556473E-1,-2.0711203E-1,2.2554724E-1,-2.3869245E-1,8.70501E-1,-5.171389E-1,3.7154373E-2,-1.6664544E-2,1.2228771E-1,-7.027193E-2,4.382215E-3],"categories":[],"categories_nodes":[],"categories_segments":[],"categories_sizes":[],"default_left":[0,0,0,0,0,0,0,0,0,0,0],"id":32,"left_children":[1,-1,3,5,7,9,-1,-1,-1,-1,-1],"loss_changes":[8.869556E1,0E0,3.4148006E1,1.3621425E1,2.0270988E1,6.3802176E0,0E0,0E0,0E0,0E0,0E0],"parents":[2147483647,0,0,2,2,3,3,4,4,5,5],"right_children":[2,-1,4,6,8,10,-1,-1,-1,-1,-1],"split_conditions":[3.9E0,-2.0711203E-1,8.1E1,1E0,4.9E-1,7.8E-1,3.7154373E-2,-1.6664544E-2,1.2228771E-1,-7.027193E-2,4.382215E-3],"split_indices":[79,0,28,122,16,81,0,0,0,0,0],"split_type":[0,0,0,0,0,0,0,0,0,0,0],"sum_hessian":[1.05E2,1E1,9.5E1,5.8E1,3.7E1,4.2E1,1.6E1,1E1,2.7E1,3.1E1,1.1E1],"tree_param":{"num_deleted":"0","num_feature":"163","num_nodes":"11","size_leaf_vector":"1"}},{"base_weights":[9.327077E-2,-7.6221424E-1,1.105522E0,-1.1078025E0,3.7134588E-2,4.2303622E-1,1.9614342E-1,-9.961076E-3,-1.3541975E0,-1.1369648E-2,6.4375067E-1,-4.4317733E-2,-1.6708718E-1,9.0509675E-2,-0E0],"categories":[],"categories_nodes":[],"categories_segments":[],"categories_sizes":[],"default_left":[0,0,0,0,0,0,0,0,0,0,0,0,0,0,0],"id":33,"left_children":[1,3,5,7,-1,9,-1,-1,11,-1,13,-1,-1,-1,-1],"loss_changes":[1.04025986E2,3.0313675E1,2.1446083E1,1.0363174E1,0E0,6.4744225E0,0E0,0E0,2.3093872E0,0E0,5.570692E0,0E0,0E0,0E0,0E0],"parents":[2147483647,0,0,1,1,2,2,3,3,5,5,8,8,10,10],"right_children":[2,4,6,8,-1,10,-1,-1,12,-1,14,-1,-1,-1,-1],"split_conditions":[1.4E1,1E0,3.2E1,3E0,3.7134588E-2,2.7E1,1.9614342E-1,-9.961076E-3,2E0,-1.1369648E-2,6.31E0,-4.4317733E-2,-1.6708718E-1,9.0509675E-2,-0E0],"split_indices":[145,122,145,136,0,26,0,0,96,0,71,0,0,0,0],"split_type":[0,0,0,0,0,0,0,0,0,0,0,0,0,0,0],"sum_hessian":[1E2,5.5E1,4.5E1,4.3E1,1.2E1,3.4E1,1.1E1,1.2E1,3.1E1,1E1,2.4E1,1.5E1,1.6E1,1.4E1,1E1],"tree_param":{"num_deleted":"0","num_feature":"163","num_nodes":"15","size_leaf_vector":"1"}},{"base_weights":[-4.9114328E-2,3.9057162E-1,-1.6312888E-1,-1.8041494E-1,9.719623E-1,-4.422507E-1,2.8116167E-2,4.9415445E-3,1.3621563E-1,-6.170171E-2,-0E0],"categories":[],"categories_nodes":[],"categories_segments":[],"categories_sizes":[],"default_left":[0,0,0,0,0,0,0,0,0,0,0],"id":34,"left_children":[1,3,-1,5,7,9,-1,-1,-1,-1,-1],"loss_changes":[8.6221634E1,3.441387E1,0E0,8.172535E0,1.5913925E1,3.4022913E0,0E0,0E0,0E0,0E0,0E0],"parents":[2147483647,0,0,1,1,3,3,4,4,5,5],"right_children":[2,4,-1,6,8,10,-1,-1,-1,-1,-1],"split_conditions":[3.47E2,1E0,-1.6312888E-1,8.5E1,1E0,1.06E2,2.8116167E-2,4.9415445E-3,1.3621563E-1,-6.170171E-2,-0E0],"split_indices":[31,138,0,28,99,31,0,0,0,0,0],"split_type":[0,0,0,0,0,0,0,0,0,0,0],"sum_hessian":[1.03E2,8.6E1,1.7E1,4.6E1,4E1,3.1E1,1.5E1,1.6E1,2.4E1,2E1,1.1E1],"tree_param":{"num_deleted":"0","num_feature":"163","num_nodes":"11","size_leaf_vector":"1"}},{"base_weights":[-9.6204415E-2,-8.341413E-1,9.656656E-1,-1.735073E0,-1.0335122E-1,-8.201114E-3,1.3444085E-1,-2.1785715E-1,-4.3884914E-2,-4.8548985E-2,1.4542823E-1,-1.1897336E-2,3.24456E-2],"categories":[],"categories_nodes":[],"categories_segments":[],"categories_sizes":[],"default_left":[0,0,0,0,0,0,0,0,0,0,0,0,0],"id":35,"left_children":[1,3,5,7,9,-1,-1,-1,-1,-1,11,-1,-1],"loss_changes":[9.568591E1,4.377257E1,2.2204964E1,5.643013E0,5.894581E0,0E0,0E0,0E0,0E0,0E0,2.3429017E0,0E0,0E0],"parents":[2147483647,0,0,1,1,2,2,3,3,4,4,10,10],"right_children":[2,4,6,8,10,-1,-1,-1,-1,-1,12,-1,-1],"split_conditions":[1E0,4.3E0,5.5E-1,4E0,2.2E-1,-8.201114E-3,1.3444085E-1,-2.1785715E-1,-4.3884914E-2,-4.8548985E-2,1.5E1,-1.1897336E-2,3.24456E-2],"split_indices":[138,79,90,32,47,0,0,0,0,0,107,0,0],"split_type":[0,0,0,0,0,0,0,0,0,0,0,0,0],"sum_hessian":[1.02E2,6.2E1,4E1,2.1E1,4.1E1,1.2E1,2.8E1,1E1,1.1E1,1.4E1,2.7E1,1E1,1.7E1],"tree_param":{"num_deleted":"0","num_feature":"163","num_nodes":"13","size_leaf_vector":"1"}},{"base_weights":[-4.2572517E-2,-8.532752E-1,1.0873094E0,-2.0092015E-1,-2.703924E-1,2.0068708E-1,2.6668078E-1,-6.5876234E-1,1.2215657E-1,5.8820423E-2,-1.2429301E-2,-8.0459684E-2,-1.5161241E-2,-2.748538E-2,4.7685083E-2],"categories":[],"categories_nodes":[],"categories_segments":[],"categories_sizes":[],"default_left":[0,0,0,0,0,0,0,0,0,0,0,0,0,0,0],"id":36,"left_children":[1,3,5,-1,7,-1,9,11,13,-1,-1,-1,-1,-1,-1],"loss_changes":[1.0797152E2,3.8777775E1,2.9350811E1,0E0,1.0183672E1,0E0,5.971884E0,1.9064045E-1,6.5820627E0,0E0,0E0,0E0,0E0,0E0,0E0],"parents":[2147483647,0,0,1,1,2,2,4,4,6,6,7,7,8,8],"right_children":[2,4,6,-1,8,-1,10,12,14,-1,-1,-1,-1,-1,-1],"split_conditions":[8.1E1,1.3E1,2E0,-2.0092015E-1,3E0,2.0068708E-1,4.7E1,6.6E-1,6.7E-1,5.8820423E-2,-1.2429301E-2,-8.0459684E-2,-1.5161241E-2,-2.748538E-2,4.7685083E-2],"split_indices":[28,78,32,0,1,0,35,34,40,0,0,0,0,0,0],"split_type":[0,0,0,0,0,0,0,0,0,0,0,0,0,0,0],"sum_hessian":[9.8E1,5.9E1,3.9E1,1.1E1,4.8E1,1.1E1,2.8E1,2.2E1,2.6E1,1.4E1,1.4E1,1.1E1,1.1E1,1.2E1,1.4E1],"tree_param":{"num_deleted":"0","num_feature":"163","num_nodes":"15","size_leaf_vector":"1"}},{"base_weights":[8.688527E-2,-9.355362E-1,6.748222E-1,-1.349881E0,1.659008E-2,2.6630196E-1,1.6151021E-1,-3.3572312E-2,-1.6013744E-1,-2.830846E-2,5.582127E-1,7.951559E-2,-1.0923862E-2],"categories":[],"categories_nodes":[],"categories_segments":[],"categories_sizes":[],"default_left":[0,0,0,0,0,0,0,0,0,0,0,0,0],"id":37,"left_children":[1,3,5,7,-1,9,-1,-1,-1,-1,11,-1,-1],"loss_changes":[7.097338E1,2.3047554E1,2.2626797E1,1.1035042E0,0E0,1.2279511E1,0E0,0E0,0E0,0E0,8.987493E0,0E0,0E0],"parents":[2147483647,0,0,1,1,2,2,3,3,5,5,10,10],"right_children":[2,4,6,8,-1,10,-1,-1,-1,-1,12,-1,-1],"split_conditions":[1E0,1E0,7.8E0,6E1,1.659008E-2,4E0,1.6151021E-1,-3.3572312E-2,-1.6013744E-1,-2.830846E-2,6.1E-1,7.951559E-2,-1.0923862E-2],"split_indices":[12,161,71,106,0,10,0,0,0,0,18,0,0],"split_type":[0,0,0,0,0,0,0,0,0,0,0,0,0],"sum_hessian":[9.8E1,3.3E1,6.5E1,2.3E1,1E1,5.5E1,1E1,1E1,1.3E1,1.8E1,3.7E1,2.7E1,1E1],"tree_param":{"num_deleted":"0","num_feature":"163","num_nodes":"13","size_leaf_vector":"1"}},{"base_weights":[-6.563009E-2,-1.9761561E-1,3.1320179E-1,-0E0,1.652119E-1,-4.399985E-1,1.9949664E-1,5.5104448E-3,-7.226974E-2,-1.1193839E-2,5.0162923E-2],"categories":[],"categories_nodes":[],"categories_segments":[],"categories_sizes":[],"default_left":[0,0,0,0,0,0,0,0,0,0,0],"id":38,"left_children":[1,-1,3,5,-1,7,9,-1,-1,-1,-1],"loss_changes":[9.180942E1,0E0,4.4289932E1,9.254278E0,0E0,5.684678E0,7.7260237E0,0E0,0E0,0E0,0E0],"parents":[2147483647,0,0,2,2,3,3,5,5,6,6],"right_children":[2,-1,4,6,-1,8,10,-1,-1,-1,-1],"split_conditions":[8E0,-1.9761561E-1,6.24E0,2.1E1,1.652119E-1,5.1E1,1E0,5.5104448E-3,-7.226974E-2,-1.1193839E-2,5.0162923E-2],"split_indices":[28,0,62,84,0,44,102,0,0,0,0],"split_type":[0,0,0,0,0,0,0,0,0,0,0],"sum_hessian":[1.06E2,1.1E1,9.5E1,8.5E1,1E1,2.3E1,6.2E1,1E1,1.3E1,3.2E1,3E1],"tree_param":{"num_deleted":"0","num_feature":"163","num_nodes":"11","size_leaf_vector":"1"}},{"base_weights":[7.862006E-2,-2.6984707E-1,1.6722797E-1,-9.220108E-1,1.5793744E-1,-1.263567E-1,-0E0,-1.5507263E-1,4.5609176E-1,-4.2462356E-2,2.6331251E-2,-0E0,6.798668E-2],"categories":[],"categories_nodes":[],"categories_segments":[],"categories_sizes":[],"default_left":[0,0,0,0,0,0,0,0,0,0,0,0,0],"id":39,"left_children":[1,3,-1,5,7,-1,-1,9,11,-1,-1,-1,-1],"loss_changes":[6.8112885E1,3.011883E1,0E0,1.3790287E1,7.354413E0,0E0,0E0,5.677666E0,3.4427032E0,0E0,0E0,0E0,0E0],"parents":[2147483647,0,0,1,1,3,3,4,4,7,7,8,8],"right_children":[2,4,-1,6,8,-1,-1,10,12,-1,-1,-1,-1],"split_conditions":[3.1E1,2.1E1,1.6722797E-1,1E0,1E0,-1.263567E-1,-0E0,5E0,1E0,-4.2462356E-2,2.6331251E-2,-0E0,6.798668E-2],"split_indices":[145,84,0,70,102,0,0,77,138,0,0,0,0],"split_type":[0,0,0,0,0,0,0,0,0,0,0,0,0],"sum_hessian":[1.02E2,9E1,1.2E1,3.2E1,5.8E1,2.1E1,1.1E1,2.9E1,2.9E1,1.9E1,1E1,1.4E1,1.5E1],"tree_param":{"num_deleted":"0","num_feature":"163","num_nodes":"13","size_leaf_vector":"1"}},{"base_weights":[1.5090585E-1,-1.0995964E-1,1.4819534E-1,-5.045947E-1,4.7557905E-1,-9.25718E-1,-0E0,-0E0,6.8377905E-2,-1.335529E-1,-8.852466E-3,-2.2453308E-2,2.0730618E-2],"categories":[],"categories_nodes":[],"categories_segments":[],"categories_sizes":[],"default_left":[0,0,0,0,0,0,0,0,0,0,0,0,0],"id":40,"left_children":[1,3,-1,5,7,9,11,-1,-1,-1,-1,-1,-1],"loss_changes":[4.258512E1,2.6460468E1,0E0,1.5250368E1,4.0900984E0,1.0431133E1,2.3124561E0,0E0,0E0,0E0,0E0,0E0,0E0],"parents":[2147483647,0,0,1,1,3,3,4,4,5,5,6,6],"right_children":[2,4,-1,6,8,10,12,-1,-1,-1,-1,-1,-1],"split_conditions":[1.8E1,4E0,1.4819534E-1,2.4E3,1E0,2.576E0,3.32E3,-0E0,6.8377905E-2,-1.335529E-1,-8.852466E-3,-2.2453308E-2,2.0730618E-2],"split_indices":[156,152,0,127,102,62,143,0,0,0,0,0,0],"split_type":[0,0,0,0,0,0,0,0,0,0,0,0,0],"sum_hessian":[1.04E2,9.4E1,1E1,5.8E1,3.6E1,2.8E1,3E1,1.5E1,2.1E1,1.4E1,1.4E1,1.2E1,1.8E1],"tree_param":{"num_deleted":"0","num_feature":"163","num_nodes":"13","size_leaf_vector":"1"}},{"base_weights":[-2.6625127E-2,-3.7996292E-1,1.1712326E-1,-7.6200634E-1,3.8742197E-1,-1.036214E0,9.508484E-3,-0E0,5.7419606E-2,-1.2536615E-1,-1.0462622E-2],"categories":[],"categories_nodes":[],"categories_segments":[],"categories_sizes":[],"default_left":[0,0,0,0,0,0,0,0,0,0,0],"id":41,"left_children":[1,3,-1,5,7,9,-1,-1,-1,-1,-1],"loss_changes":[5.2332546E1,3.1764679E1,0E0,1.814286E1,2.5388875E0,8.268909E0,0E0,0E0,0E0,0E0,0E0],"parents":[2147483647,0,0,1,1,3,3,4,4,5,5],"right_children":[2,4,-1,6,8,10,-1,-1,-1,-1,-1],"split_conditions":[2.9E1,1E0,1.1712326E-1,3.3E-1,5.5E0,8.2E-1,9.508484E-3,-0E0,5.7419606E-2,-1.2536615E-1,-1.0462622E-2],"split_indices":[145,37,0,47,4,34,0,0,0,0,0],"split_type":[0,0,0,0,0,0,0,0,0,0,0],"sum_hessian":[1.05E2,8.7E1,1.8E1,5.9E1,2.8E1,4.4E1,1.5E1,1.3E1,1.5E1,3.2E1,1.2E1],"tree_param":{"num_deleted":"0","num_feature":"163","num_nodes":"11","size_leaf_vector":"1"}},{"base_weights":[-1.3613041E-1,-7.2440344E-1,7.1820885E-1,-1.6137622E-1,-2.1425438E-1,-0E0,9.83167E-1,-4.3864802E-1,9.0426534E-2,1.0979443E-2,1.2289367E-1,-6.474101E-2,-6.28602E-3,-6.7828223E-3,2.6138077E-2],"categories":[],"categories_nodes":[],"categories_segments":[],"categories_sizes":[],"default_left":[0,0,0,0,0,0,0,0,0,0,0,0,0,0,0],"id":42,"left_children":[1,3,5,-1,7,-1,9,11,13,-1,-1,-1,-1,-1,-1],"loss_changes":[6.1498417E1,2.7381226E1,9.973642E0,0E0,4.710246E0,0E0,5.2539597E0,1.7854257E0,1.2095264E0,0E0,0E0,0E0,0E0,0E0,0E0],"parents":[2147483647,0,0,1,1,2,2,4,4,6,6,7,7,8,8],"right_children":[2,4,6,-1,8,-1,10,12,14,-1,-1,-1,-1,-1,-1],"split_conditions":[1E0,2E0,4.5E0,-1.6137622E-1,4E0,-0E0,2E0,5.6E-1,4E0,1.0979443E-2,1.2289367E-1,-6.474101E-2,-6.28602E-3,-6.7828223E-3,2.6138077E-2],"split_indices":[138,156,79,0,152,0,42,16,77,0,0,0,0,0,0],"split_type":[0,0,0,0,0,0,0,0,0,0,0,0,0,0,0],"sum_hessian":[1.02E2,6.2E1,4E1,1.4E1,4.8E1,1.3E1,2.7E1,2.7E1,2.1E1,1E1,1.7E1,1.1E1,1.6E1,1.1E1,1E1],"tree_param":{"num_deleted":"0","num_feature":"163","num_nodes":"15","size_leaf_vector":"1"}},{"base_weights":[7.3407493E-3,-1.4594656E-1,3.1614402E-1,2.1453112E-2,1.3388425E-1,-2.81677E-1,3.746076E-1,5.373472E-3,-5.4766353E-2,6.809355E-2,-0E0],"categories":[],"categories_nodes":[],"categories_segments":[],"categories_sizes":[],"default_left":[0,0,0,0,0,0,0,0,0,0,0],"id":43,"left_children":[1,-1,3,5,-1,7,9,-1,-1,-1,-1],"loss_changes":[5.2389786E1,0E0,2.7887712E1,1.04616165E1,0E0,5.3381786E0,5.1366115E0,0E0,0E0,0E0,0E0],"parents":[2147483647,0,0,2,2,3,3,5,5,6,6],"right_children":[2,-1,4,6,-1,8,10,-1,-1,-1,-1],"split_conditions":[1.2E0,-1.4594656E-1,6.24E0,2.3E1,1.3388425E-1,5E1,1E0,5.373472E-3,-5.4766353E-2,6.809355E-2,-0E0],"split_indices":[62,0,62,140,0,44,111,0,0,0,0],"split_type":[0,0,0,0,0,0,0,0,0,0,0],"sum_hessian":[9.8E1,1E1,8.8E1,7.7E1,1.1E1,4.1E1,3.6E1,2E1,2.1E1,1.5E1,2.1E1],"tree_param":{"num_deleted":"0","num_feature":"163","num_nodes":"11","size_leaf_vector":"1"}},{"base_weights":[-2.0359863E-1,-1.4491014E-1,6.3886344E-2,-2.0844944E-1,4.939569E-1,1.576668E-2,-3.917962E-1,-0E0,9.193308E-2,2.5169184E-3,-5.344632E-2,-2.0307064E-2,2.2911625E-2],"categories":[],"categories_nodes":[],"categories_segments":[],"categories_sizes":[],"default_left":[0,0,0,0,0,0,0,0,0,0,0,0,0],"id":44,"left_children":[1,-1,3,5,7,-1,9,11,-1,-1,-1,-1,-1],"loss_changes":[3.7958397E1,0E0,1.2676146E1,5.215067E0,8.345997E0,0E0,3.499199E0,1.8746387E0,0E0,0E0,0E0,0E0,0E0],"parents":[2147483647,0,0,2,2,3,3,4,4,6,6,7,7],"right_children":[2,-1,4,6,8,-1,10,12,-1,-1,-1,-1,-1],"split_conditions":[1.2E0,-1.4491014E-1,1E0,2E1,1E0,1.576668E-2,1.6E1,6.8E-1,9.193308E-2,2.5169184E-3,-5.344632E-2,-2.0307064E-2,2.2911625E-2],"split_indices":[62,0,37,151,159,0,26,81,0,0,0,0,0],"split_type":[0,0,0,0,0,0,0,0,0,0,0,0,0],"sum_hessian":[9.7E1,1E1,8.7E1,5.5E1,3.2E1,1.7E1,3.8E1,2E1,1.2E1,1E1,2.8E1,1E1,1E1],"tree_param":{"num_deleted":"0","num_feature":"163","num_nodes":"13","size_leaf_vector":"1"}},{"base_weights":[2.6493283E-2,-5.126412E-1,6.6721463E-1,-8.7255514E-1,1.19704336E-1,-6.7725787E-3,9.1132027E-1,-1.11392975E-1,-4.162471E-3,-8.508682E-3,3.0536054E-2,3.508361E-3,1.2877505E-1],"categories":[],"categories_nodes":[],"categories_segments":[],"categories_sizes":[],"default_left":[0,0,0,0,0,0,0,0,0,0,0,0,0],"id":45,"left_children":[1,3,5,7,9,-1,11,-1,-1,-1,-1,-1,-1],"loss_changes":[4.12274E1,1.6363094E1,1.1327963E1,7.0050926E0,1.6587385E0,0E0,1.2408585E1,0E0,0E0,0E0,0E0,0E0,0E0],"parents":[2147483647,0,0,1,1,2,2,3,3,4,4,6,6],"right_children":[2,4,6,8,10,-1,12,-1,-1,-1,-1,-1,-1],"split_conditions":[1E0,4E0,1E0,1E0,2E0,-6.7725787E-3,2E0,-1.11392975E-1,-4.162471E-3,-8.508682E-3,3.0536054E-2,3.508361E-3,1.2877505E-1],"split_indices":[138,152,12,162,124,0,124,0,0,0,0,0,0],"split_type":[0,0,0,0,0,0,0,0,0,0,0,0,0],"sum_hessian":[9.9E1,5.4E1,4.5E1,3.3E1,2.1E1,1.2E1,3.3E1,2.2E1,1.1E1,1E1,1.1E1,1.4E1,1.9E1],"tree_param":{"num_deleted":"0","num_feature":"163","num_nodes":"13","size_leaf_vector":"1"}},{"base_weights":[-4.1455292E-5,-5.2859193E-1,7.024104E-1,-1.34224E-1,-1.587742E-1,-1.0915623E-2,9.4543964E-1,-4.553739E-1,1.8128261E-1,2.0100405E-3,1.1970768E0,-5.875941E-2,-0E0,-2.7204514E-3,3.528231E-2,2.9910643E-2,1.4238332E-1],"categories":[],"categories_nodes":[],"categories_segments":[],"categories_sizes":[],"default_left":[0,0,0,0,0,0,0,0,0,0,0,0,0,0,0,0,0],"id":46,"left_children":[1,3,5,-1,7,-1,9,11,13,-1,15,-1,-1,-1,-1,-1,-1],"loss_changes":[4.549385E1,1.773186E1,1.2124477E1,0E0,7.252111E0,0E0,8.321892E0,1.6496835E0,1.6375777E0,0E0,5.3414154E-1,0E0,0E0,0E0,0E0,0E0,0E0],"parents":[2147483647,0,0,1,1,2,2,4,4,6,6,7,7,8,8,10,10],"right_children":[2,4,6,-1,8,-1,10,12,14,-1,16,-1,-1,-1,-1,-1,-1],"split_conditions":[1E0,1.2E0,4.1E-1,-1.34224E-1,2.4E1,-1.0915623E-2,2.4E1,5E0,3.7E-1,2.0100405E-3,1E0,-5.875941E-2,-0E0,-2.7204514E-3,3.528231E-2,2.9910643E-2,1.4238332E-1],"split_indices":[138,62,90,0,7,0,84,42,144,0,134,0,0,0,0,0,0],"split_type":[0,0,0,0,0,0,0,0,0,0,0,0,0,0,0,0,0],"sum_hessian":[1.03E2,6.1E1,4.2E1,1E1,5.1E1,1E1,3.2E1,2.7E1,2.4E1,1E1,2.2E1,1.7E1,1E1,1.2E1,1.2E1,1E1,1.2E1],"tree_param":{"num_deleted":"0","num_feature":"163","num_nodes":"17","size_leaf_vector":"1"}},{"base_weights":[-4.137979E-2,-1.4236224E-1,2.4021319E-1,-4.8143756E-2,6.4743555E-1,3.1115657E-2,-2.1078208E-1,1.1218696E-1,1.8743133E-2,-4.2153016E-2,8.176975E-3,2.3992388E-2,-1.6180916E-2],"categories":[],"categories_nodes":[],"categories_segments":[],"categories_sizes":[],"default_left":[0,0,0,0,0,0,0,0,0,0,0,0,0],"id":47,"left_children":[1,-1,3,5,7,-1,9,-1,11,-1,-1,-1,-1],"loss_changes":[4.8196873E1,0E0,1.2770956E1,4.4707003E0,1.177313E1,0E0,4.0137997E0,0E0,1.6643741E0,0E0,0E0,0E0,0E0],"parents":[2147483647,0,0,2,2,3,3,4,4,6,6,8,8],"right_children":[2,-1,4,6,8,-1,10,-1,12,-1,-1,-1,-1],"split_conditions":[1.2E0,-1.4236224E-1,1E0,2.8E1,9E0,3.1115657E-2,6.7E-1,1.1218696E-1,4.1E-1,-4.2153016E-2,8.176975E-3,2.3992388E-2,-1.6180916E-2],"split_indices":[62,0,159,44,25,0,90,0,133,0,0,0,0],"split_type":[0,0,0,0,0,0,0,0,0,0,0,0,0],"sum_hessian":[1.02E2,1.1E1,9.1E1,5.7E1,3.4E1,1.3E1,4.4E1,1.4E1,2E1,2.5E1,1.9E1,1E1,1E1],"tree_param":{"num_deleted":"0","num_feature":"163","num_nodes":"13","size_leaf_vector":"1"}},{"base_weights":[-3.4784626E-2,3.6381537E-1,-7.701152E-1,-0E0,7.753684E-1,-1.7890904E-2,-1.1539254E-1,2.585136E-2,-1.8342525E-1,1.19616464E-1,-2.7145569E-3,-2.9488325E-2,-0E0],"categories":[],"categories_nodes":[],"categories_segments":[],"categories_sizes":[],"default_left":[0,0,0,0,0,0,0,0,0,0,0,0,0],"id":48,"left_children":[1,3,5,7,9,-1,-1,-1,11,-1,-1,-1,-1],"loss_changes":[3.3983883E1,1.1247105E1,5.906042E0,2.7814717E0,1.3313047E1,0E0,0E0,0E0,9.093784E-1,0E0,0E0,0E0,0E0],"parents":[2147483647,0,0,1,1,2,2,3,3,4,4,8,8],"right_children":[2,4,6,8,10,-1,-1,-1,12,-1,-1,-1,-1],"split_conditions":[3E0,7.1E-1,5.2E1,4.472E3,4.8E1,-1.7890904E-2,-1.1539254E-1,2.585136E-2,1E0,1.19616464E-1,-2.7145569E-3,-2.9488325E-2,-0E0],"split_indices":[96,90,106,52,35,0,0,0,36,0,0,0,0],"split_type":[0,0,0,0,0,0,0,0,0,0,0,0,0],"sum_hessian":[9.5E1,6.4E1,3.1E1,3.9E1,2.5E1,1.9E1,1.2E1,1.4E1,2.5E1,1.4E1,1.1E1,1.4E1,1.1E1],"tree_param":{"num_deleted":"0","num_feature":"163","num_nodes":"13","size_leaf_vector":"1"}},{"base_weights":[8.799528E-3,-6.175408E-1,4.2181736E-1,8.244996E-3,-8.749569E-1,1.5620252E-1,1.02415696E-1,-1.9395212E-2,-1.2538405E-1,-1.457293E-1,3.800531E-1,1.969925E-2,-4.2386595E-2,-0E0,5.2816506E-2],"categories":[],"categories_nodes":[],"categories_segments":[],"categories_sizes":[],"default_left":[0,0,0,0,0,0,0,0,0,0,0,0,0,0,0],"id":49,"left_children":[1,3,5,-1,7,9,-1,-1,-1,11,13,-1,-1,-1,-1],"loss_changes":[3.164111E1,1.0162975E1,9.219156E0,0E0,5.6671543E0,5.1813674E0,0E0,0E0,0E0,4.2075324E0,2.3022542E0,0E0,0E0,0E0,0E0],"parents":[2147483647,0,0,1,1,2,2,4,4,5,5,9,9,10,10],"right_children":[2,4,6,-1,8,10,-1,-1,-1,12,14,-1,-1,-1,-1],"split_conditions":[1E0,3E0,1.8E1,8.244996E-3,3.47E2,6.1E-1,1.02415696E-1,-1.9395212E-2,-1.2538405E-1,5E0,3E0,1.969925E-2,-4.2386595E-2,-0E0,5.2816506E-2],"split_indices":[36,118,156,0,31,16,0,0,0,25,155,0,0,0,0],"split_type":[0,0,0,0,0,0,0,0,0,0,0,0,0,0,0],"sum_hessian":[1.03E2,3.8E1,6.5E1,1.1E1,2.7E1,5.5E1,1E1,1.6E1,1.1E1,2.3E1,3.2E1,1E1,1.3E1,1.2E1,2E1],"tree_param":{"num_deleted":"0","num_feature":"163","num_nodes":"15","size_leaf_vector":"1"}},{"base_weights":[4.644836E-2,-4.018756E-1,5.1090086E-1,-5.8283728E-2,-8.799445E-2,9.7673446E-2,6.5497376E-2,1.6796555E-1,-3.335019E-2,-1.6449305E-1,3.8048606E-2,-2.6278177E-3,3.379387E-2,6.6701893E-4,-3.0340975E-2],"categories":[],"categories_nodes":[],"categories_segments":[],"categories_sizes":[],"default_left":[0,0,0,0,0,0,0,0,0,0,0,0,0,0,0],"id":50,"left_children":[1,3,5,7,-1,-1,9,11,-1,13,-1,-1,-1,-1,-1],"loss_changes":[2.5691656E1,8.733062E0,1.0974549E1,3.7145643E0,0E0,0E0,3.956974E0,1.4239674E0,0E0,1.0303006E0,0E0,0E0,0E0,0E0,0E0],"parents":[2147483647,0,0,1,1,2,2,3,3,6,6,7,7,9,9],"right_children":[2,4,6,8,-1,-1,10,12,-1,14,-1,-1,-1,-1,-1],"split_conditions":[1E0,6.2E1,4E1,1E0,-8.799445E-2,9.7673446E-2,2.9E1,8.5E1,-3.335019E-2,8E0,3.8048606E-2,-2.6278177E-3,3.379387E-2,6.6701893E-4,-3.0340975E-2],"split_indices":[99,153,153,69,0,0,84,31,0,149,0,0,0,0,0],"split_type":[0,0,0,0,0,0,0,0,0,0,0,0,0,0,0],"sum_hessian":[1.03E2,5.2E1,5.1E1,3.8E1,1.4E1,1.8E1,3.3E1,2.1E1,1.7E1,2E1,1.3E1,1.1E1,1E1,1E1,1E1],"tree_param":{"num_deleted":"0","num_feature":"163","num_nodes":"15","size_leaf_vector":"1"}},{"base_weights":[-1.5391503E-3,3.3834046E-1,-7.041962E-1,1.04622915E-1,9.437757E-2,-1.1551666E-1,-1.2182812E-1,-1.0476875E-1,4.0060794E-1,-2.4509048E-2,3.4772872E-3,-3.5117503E-2,1.431758E-2,2.4519602E-3,5.2633733E-2],"categories":[],"categories_nodes":[],"categories_segments":[],"categories_sizes":[],"default_left":[0,0,0,0,0,0,0,0,0,0,0,0,0,0,0],"id":51,"left_children":[1,3,5,-1,7,9,-1,11,13,-1,-1,-1,-1,-1,-1],"loss_changes":[3.1167873E1,1.2724065E1,1.0272028E1,0E0,5.3503847E0,9.186974E-1,0E0,3.8877416E0,9.277892E-1,0E0,0E0,0E0,0E0,0E0,0E0],"parents":[2147483647,0,0,1,1,2,2,4,4,5,5,7,7,8,8],"right_children":[2,4,6,-1,8,10,-1,12,14,-1,-1,-1,-1,-1,-1],"split_conditions":[3E0,6E0,5.4E1,1.04622915E-1,4E0,3.3E-1,-1.2182812E-1,5.7E-1,6.1E-1,-2.4509048E-2,3.4772872E-3,-3.5117503E-2,1.431758E-2,2.4519602E-3,5.2633733E-2],"split_indices":[96,31,106,0,152,131,0,81,40,0,0,0,0,0,0],"split_type":[0,0,0,0,0,0,0,0,0,0,0,0,0,0,0],"sum_hessian":[1.09E2,7.6E1,3.3E1,1E1,6.6E1,2.2E1,1.1E1,4.2E1,2.4E1,1.2E1,1E1,2.1E1,2.1E1,1.1E1,1.3E1],"tree_param":{"num_deleted":"0","num_feature":"163","num_nodes":"15","size_leaf_vector":"1"}},{"base_weights":[3.5882336E-3,-1.5535994E-1,8.624298E-2,-7.1090125E-2,-6.8335743E-3,-2.4866514E-1,2.4581726E-1,-0E0,-5.336841E-2,4.9372893E-2,-3.4172696E-3],"categories":[],"categories_nodes":[],"categories_segments":[],"categories_sizes":[],"default_left":[0,0,0,0,0,0,0,0,0,0,0],"id":52,"left_children":[1,3,-1,-1,5,7,9,-1,-1,-1,-1],"loss_changes":[1.7336206E1,7.6499634E0,0E0,0E0,6.2352133E0,3.496594E0,3.96009E0,0E0,0E0,0E0,0E0],"parents":[2147483647,0,0,1,1,4,4,5,5,6,6],"right_children":[2,4,-1,-1,6,8,10,-1,-1,-1,-1],"split_conditions":[5.97E2,3.2E-1,8.624298E-2,-7.1090125E-2,1.9E-1,4.9E1,3.041E3,-0E0,-5.336841E-2,4.9372893E-2,-3.4172696E-3],"split_indices":[78,16,0,0,49,153,142,0,0,0,0],"split_type":[0,0,0,0,0,0,0,0,0,0,0],"sum_hessian":[1.02E2,9.2E1,1E1,1E1,8.2E1,4.4E1,3.8E1,3E1,1.4E1,1.8E1,2E1],"tree_param":{"num_deleted":"0","num_feature":"163","num_nodes":"11","size_leaf_vector":"1"}},{"base_weights":[-1.08303845E-1,9.8518096E-2,-1.1175795E-1,-2.0171396E-1,4.2212993E-1,-3.5218057E-1,1.9521618E-2,-1.6734397E-2,8.1283495E-2,-9.0966665E-4,-4.4118177E-2],"categories":[],"categories_nodes":[],"categories_segments":[],"categories_sizes":[],"default_left":[0,0,0,0,0,0,0,0,0,0,0],"id":53,"left_children":[1,3,-1,5,7,9,-1,-1,-1,-1,-1],"loss_changes":[2.4664038E1,1.0593459E1,0E0,4.189062E0,1.3981861E1,9.1419315E-1,0E0,0E0,0E0,0E0,0E0],"parents":[2147483647,0,0,1,1,3,3,4,4,5,5],"right_children":[2,4,-1,6,8,10,-1,-1,-1,-1,-1],"split_conditions":[6.4E1,4.5E3,-1.1175795E-1,4.4E1,2E0,5.1E1,1.9521618E-2,-1.6734397E-2,8.1283495E-2,-9.0966665E-4,-4.4118177E-2],"split_indices":[106,127,0,146,124,44,0,0,0,0,0],"split_type":[0,0,0,0,0,0,0,0,0,0,0],"sum_hessian":[9.8E1,8.8E1,1E1,4.6E1,4.2E1,3.6E1,1E1,1.8E1,2.4E1,1.2E1,2.4E1],"tree_param":{"num_deleted":"0","num_feature":"163","num_nodes":"11","size_leaf_vector":"1"}},{"base_weights":[7.918877E-3,-8.953802E-2,1.904842E-1,3.5181735E-2,7.751637E-2,-1.9629847E-1,2.9814398E-1,2.326386E-3,-3.30493E-2,-3.5637447E-3,5.282828E-2],"categories":[],"categories_nodes":[],"categories_segments":[],"categories_sizes":[],"default_left":[0,0,0,0,0,0,0,0,0,0,0],"id":54,"left_children":[1,-1,3,5,-1,7,9,-1,-1,-1,-1],"loss_changes":[1.9800526E1,0E0,8.360363E0,6.4089303E0,0E0,1.9751742E0,4.521714E0,0E0,0E0,0E0,0E0],"parents":[2147483647,0,0,2,2,3,3,5,5,6,6],"right_children":[2,-1,4,6,-1,8,10,-1,-1,-1,-1],"split_conditions":[1.2E0,-8.953802E-2,1.8E1,2.5E1,7.751637E-2,2.7E1,3.9E1,2.326386E-3,-3.30493E-2,-3.5637447E-3,5.282828E-2],"split_indices":[62,0,156,7,0,146,146,0,0,0,0],"split_type":[0,0,0,0,0,0,0,0,0,0,0],"sum_hessian":[1.04E2,1E1,9.4E1,8.4E1,1E1,4.4E1,4E1,1.7E1,2.7E1,1.8E1,2.2E1],"tree_param":{"num_deleted":"0","num_feature":"163","num_nodes":"11","size_leaf_vector":"1"}},{"base_weights":[-0E0,-9.016217E-2,1.8345608E-1,8.415599E-3,8.069857E-2,-2.2039288E-1,2.6992345E-1,-3.4815542E-2,8.6378185E-3,-2.8819733E-3,4.396101E-2],"categories":[],"categories_nodes":[],"categories_segments":[],"categories_sizes":[],"default_left":[0,0,0,0,0,0,0,0,0,0,0],"id":55,"left_children":[1,-1,3,5,-1,7,9,-1,-1,-1,-1],"loss_changes":[2.050428E1,0E0,1.0249266E1,6.089428E0,0E0,2.6005878E0,3.0214279E0,0E0,0E0,0E0,0E0],"parents":[2147483647,0,0,2,2,3,3,5,5,6,6],"right_children":[2,-1,4,6,-1,8,10,-1,-1,-1,-1],"split_conditions":[8E0,-9.016217E-2,2.4E2,5.8E-1,8.069857E-2,5E0,5.6E-1,-3.4815542E-2,8.6378185E-3,-2.8819733E-3,4.396101E-2],"split_indices":[28,0,28,81,0,11,16,0,0,0,0],"split_type":[0,0,0,0,0,0,0,0,0,0,0],"sum_hessian":[1.03E2,1.1E1,9.2E1,8.1E1,1.1E1,4.2E1,3.9E1,3.1E1,1.1E1,1.5E1,2.4E1],"tree_param":{"num_deleted":"0","num_feature":"163","num_nodes":"11","size_leaf_vector":"1"}},{"base_weights":[1.57912E-1,-4.3931607E-2,9.206133E-2,-2.8260952E-1,2.7620038E-1,-4.8622435E-1,6.1844857E-3,-2.6187897E-3,4.3441247E-2,-0E0,-6.4797245E-2,-1.4818057E-2,1.978729E-2],"categories":[],"categories_nodes":[],"categories_segments":[],"categories_sizes":[],"default_left":[0,0,0,0,0,0,0,0,0,0,0,0,0],"id":56,"left_children":[1,3,-1,5,7,9,11,-1,-1,-1,-1,-1,-1],"loss_changes":[1.636787E1,7.3581033E0,0E0,3.8030634E0,2.4356472E0,2.2222128E0,1.2601913E0,0E0,0E0,0E0,0E0,0E0,0E0],"parents":[2147483647,0,0,1,1,3,3,4,4,5,5,6,6],"right_children":[2,4,-1,6,8,10,12,-1,-1,-1,-1,-1,-1],"split_conditions":[3.2E1,3.8E1,9.206133E-2,1E0,1.8E-1,5.7E1,2.6E-1,-2.6187897E-3,4.3441247E-2,-0E0,-6.4797245E-2,-1.4818057E-2,1.978729E-2],"split_indices":[145,84,0,158,147,105,51,0,0,0,0,0,0],"split_type":[0,0,0,0,0,0,0,0,0,0,0,0,0],"sum_hessian":[8.8E1,7.6E1,1.2E1,4.6E1,3E1,2.5E1,2.1E1,1.1E1,1.9E1,1E1,1.5E1,1E1,1.1E1],"tree_param":{"num_deleted":"0","num_feature":"163","num_nodes":"13","size_leaf_vector":"1"}},{"base_weights":[-5.2257437E-2,-3.3588523E-1,4.08286E-1,-5.4378253E-1,1.4467798E-1,8.152168E-2,-0E0,-6.692415E-1,-0E0,2.5988389E-2,-0E0,-2.0363966E-2,2.1539746E-2,-8.656245E-2,-1.1017472E-2],"categories":[],"categories_nodes":[],"categories_segments":[],"categories_sizes":[],"default_left":[0,0,0,0,0,0,0,0,0,0,0,0,0,0,0],"id":57,"left_children":[1,3,5,7,9,-1,11,13,-1,-1,-1,-1,-1,-1,-1],"loss_changes":[1.6320606E1,8.978646E0,8.115105E0,3.8999882E0,7.22841E-1,0E0,1.8817108E0,3.2306862E0,0E0,0E0,0E0,0E0,0E0,0E0,0E0],"parents":[2147483647,0,0,1,1,2,2,3,3,4,4,6,6,7,7],"right_children":[2,4,6,8,10,-1,12,14,-1,-1,-1,-1,-1,-1,-1],"split_conditions":[4E0,1E0,1.2E1,3.2E1,1E1,8.152168E-2,5E0,2.1E1,-0E0,2.5988389E-2,-0E0,-2.0363966E-2,2.1539746E-2,-8.656245E-2,-1.1017472E-2],"split_indices":[152,45,94,140,24,0,93,94,0,0,0,0,0,0,0],"split_type":[0,0,0,0,0,0,0,0,0,0,0,0,0,0,0],"sum_hessian":[1.05E2,6.8E1,3.7E1,4.8E1,2E1,1.4E1,2.3E1,3.7E1,1.1E1,1E1,1E1,1.3E1,1E1,2.2E1,1.5E1],"tree_param":{"num_deleted":"0","num_feature":"163","num_nodes":"15","size_leaf_vector":"1"}},{"base_weights":[-5.8766894E-2,-2.2722995E-1,6.997372E-2,-4.5082897E-1,2.459357E-2,-7.7492125E-2,-1.0183931E-1,-1.859835E-1,3.1474575E-2,-2.4418004E-2,7.3687644E-3,-3.2875877E-2,2.3649388E-4],"categories":[],"categories_nodes":[],"categories_segments":[],"categories_sizes":[],"default_left":[0,0,0,0,0,0,0,0,0,0,0,0,0],"id":58,"left_children":[1,3,-1,5,7,-1,9,11,-1,-1,-1,-1,-1],"loss_changes":[1.4917736E1,5.9989367E0,0E0,4.4417286E0,3.9524055E0,0E0,1.3248237E0,1.275371E0,0E0,0E0,0E0,0E0,0E0],"parents":[2147483647,0,0,1,1,3,3,4,4,6,6,7,7],"right_children":[2,4,-1,6,8,-1,10,12,-1,-1,-1,-1,-1],"split_conditions":[6.24E0,1E0,6.997372E-2,6E0,3.9E-1,-7.7492125E-2,1E1,2.741E3,3.1474575E-2,-2.4418004E-2,7.3687644E-3,-3.2875877E-2,2.3649388E-4],"split_indices":[62,102,0,145,144,0,10,142,0,0,0,0,0],"split_type":[0,0,0,0,0,0,0,0,0,0,0,0,0],"sum_hessian":[9.8E1,8.7E1,1.1E1,4.4E1,4.3E1,1.5E1,2.9E1,2.5E1,1.8E1,1.7E1,1.2E1,1.3E1,1.2E1],"tree_param":{"num_deleted":"0","num_feature":"163","num_nodes":"13","size_leaf_vector":"1"}},{"base_weights":[-6.701934E-2,-1.04078546E-1,1.283135E-1,4.3585432E-1,-9.498278E-2,7.238282E-2,8.037796E-2,-2.4525177E-1,1.3375728E-1,-1.6296221E-2,3.1973533E-2,-4.269024E-2,2.0211148E-3,2.1871567E-2,-0E0],"categories":[],"categories_nodes":[],"categories_segments":[],"categories_sizes":[],"default_left":[0,0,0,0,0,0,0,0,0,0,0,0,0,0,0],"id":59,"left_children":[1,-1,3,5,7,9,-1,11,13,-1,-1,-1,-1,-1,-1],"loss_changes":[2.3931707E1,0E0,7.828149E0,4.827365E0,2.7081242E0,2.7734952E0,0E0,2.711162E0,4.200006E-1,0E0,0E0,0E0,0E0,0E0,0E0],"parents":[2147483647,0,0,2,2,3,3,4,4,5,5,7,7,8,8],"right_children":[2,-1,4,6,8,10,-1,12,14,-1,-1,-1,-1,-1,-1],"split_conditions":[8E0,-1.04078546E-1,1.4E1,3.4E2,3E1,4.5E3,8.037796E-2,4.5E-2,3.2E1,-1.6296221E-2,3.1973533E-2,-4.269024E-2,2.0211148E-3,2.1871567E-2,-0E0],"split_indices":[28,0,107,78,7,127,0,33,27,0,0,0,0,0,0],"split_type":[0,0,0,0,0,0,0,0,0,0,0,0,0,0,0],"sum_hessian":[1.04E2,1.1E1,9.3E1,3.7E1,5.6E1,2.6E1,1.1E1,3.6E1,2E1,1.3E1,1.3E1,2E1,1.6E1,1E1,1E1],"tree_param":{"num_deleted":"0","num_feature":"163","num_nodes":"15","size_leaf_vector":"1"}},{"base_weights":[4.9763408E-2,-2.3847023E-1,5.0458956E-1,-4.7504938E-1,1.9307602E-2,-8.163871E-2,1.0278185E-1,-0E0,-6.636428E-2,-6.572034E-2,1.7579807E-2,1.4457302E-2,-3.0582193E-2,-1.9239461E-2,5.0147823E-3],"categories":[],"categories_nodes":[],"categories_segments":[],"categories_sizes":[],"default_left":[0,0,0,0,0,0,0,0,0,0,0,0,0,0,0],"id":60,"left_children":[1,3,5,7,9,11,-1,-1,-1,13,-1,-1,-1,-1,-1],"loss_changes":[1.615219E1,5.060342E0,1.6508394E1,3.519681E0,7.9777354E-1,2.175484E0,0E0,0E0,0E0,6.937315E-1,0E0,0E0,0E0,0E0,0E0],"parents":[2147483647,0,0,1,1,2,2,3,3,4,4,5,5,9,9],"right_children":[2,4,6,8,10,12,-1,-1,-1,14,-1,-1,-1,-1,-1],"split_conditions":[7.2E-1,1E0,1E0,4.3E0,1E0,4.7E1,1.0278185E-1,-0E0,-6.636428E-2,1E1,1.7579807E-2,1.4457302E-2,-3.0582193E-2,-1.9239461E-2,5.0147823E-3],"split_indices":[90,5,14,4,45,44,0,0,0,149,0,0,0,0,0],"split_type":[0,0,0,0,0,0,0,0,0,0,0,0,0,0,0],"sum_hessian":[1.02E2,6.4E1,3.8E1,3.1E1,3.3E1,2.1E1,1.7E1,1.2E1,1.9E1,2.1E1,1.2E1,1E1,1.1E1,1.1E1,1E1],"tree_param":{"num_deleted":"0","num_feature":"163","num_nodes":"15","size_leaf_vector":"1"}},{"base_weights":[4.448506E-2,-2.0345838E-1,4.486278E-1,-4.8621464E-1,1.173954E-1,6.903698E-2,1.7703747E-3,-6.060258E-1,-1.8790109E-3,-2.4257312E-2,3.9688926E-2,-1.4818259E-2,-7.7953264E-2],"categories":[],"categories_nodes":[],"categories_segments":[],"categories_sizes":[],"default_left":[0,0,0,0,0,0,0,0,0,0,0,0,0],"id":61,"left_children":[1,3,5,7,9,-1,-1,11,-1,-1,-1,-1,-1],"loss_changes":[1.2581258E1,7.834593E0,4.169983E0,1.7254295E0,5.34264E0,0E0,0E0,5.3863716E-1,0E0,0E0,0E0,0E0,0E0],"parents":[2147483647,0,0,1,1,2,2,3,3,4,4,7,7],"right_children":[2,4,6,8,10,-1,-1,12,-1,-1,-1,-1,-1],"split_conditions":[1E0,3.5E1,1.4E1,4E0,7.2E3,6.903698E-2,1.7703747E-3,4E0,-1.8790109E-3,-2.4257312E-2,3.9688926E-2,-1.4818259E-2,-7.7953264E-2],"split_indices":[37,2,107,141,132,0,0,39,0,0,0,0,0],"split_type":[0,0,0,0,0,0,0,0,0,0,0,0,0],"sum_hessian":[1.04E2,6.6E1,3.8E1,3.4E1,3.2E1,1.9E1,1.9E1,2.3E1,1.1E1,1.3E1,1.9E1,1.3E1,1E1],"tree_param":{"num_deleted":"0","num_feature":"163","num_nodes":"13","size_leaf_vector":"1"}},{"base_weights":[-5.5602132E-3,1.3830933E-1,-7.7932134E-2,-1.3682772E-1,3.8312262E-1,1.6507473E-2,-3.012147E-1,1.22733675E-1,7.664948E-2,-4.2228777E-2,-1.9655763E-3,-1.9374735E-3,3.1458154E-2],"categories":[],"categories_nodes":[],"categories_segments":[],"categories_sizes":[],"default_left":[0,0,0,0,0,0,0,0,0,0,0,0,0],"id":62,"left_children":[1,3,-1,5,7,-1,9,11,-1,-1,-1,-1,-1],"loss_changes":[1.4075479E1,7.573591E0,0E0,3.2636976E0,3.9599247E0,0E0,8.3862066E-1,1.6647897E0,0E0,0E0,0E0,0E0,0E0],"parents":[2147483647,0,0,1,1,3,3,4,4,6,6,7,7],"right_children":[2,4,-1,6,8,-1,10,12,-1,-1,-1,-1,-1],"split_conditions":[4.54E2,2.6E1,-7.7932134E-2,2.2E1,3.4E2,1.6507473E-2,4E0,8.5E3,7.664948E-2,-4.2228777E-2,-1.9655763E-3,-1.9374735E-3,3.1458154E-2],"split_indices":[31,84,0,44,78,0,119,127,0,0,0,0,0],"split_type":[0,0,0,0,0,0,0,0,0,0,0,0,0],"sum_hessian":[1.01E2,9.1E1,1E1,4.3E1,4.8E1,1.3E1,3E1,3.8E1,1E1,1.5E1,1.5E1,2.4E1,1.4E1],"tree_param":{"num_deleted":"0","num_feature":"163","num_nodes":"13","size_leaf_vector":"1"}},{"base_weights":[-4.434425E-3,-3.9441815E-1,2.82437E-1,-6.793206E-2,-2.8590579E-3,4.2822775E-1,-2.1699563E-2,1.4875014E-2,-2.257801E-2,5.501646E-1,-0E0,5.394535E-3,6.508334E-2],"categories":[],"categories_nodes":[],"categories_segments":[],"categories_sizes":[],"default_left":[0,0,0,0,0,0,0,0,0,0,0,0,0],"id":63,"left_children":[1,3,5,-1,7,9,-1,-1,-1,11,-1,-1,-1],"loss_changes":[1.31966095E1,4.987762E0,5.946103E0,0E0,1.5281752E0,3.0487413E0,0E0,0E0,0E0,1.1420937E0,0E0,0E0,0E0],"parents":[2147483647,0,0,1,1,2,2,4,4,5,5,9,9],"right_children":[2,4,6,-1,8,10,-1,-1,-1,12,-1,-1,-1],"split_conditions":[1E0,2E0,5E0,-6.793206E-2,6.1E1,4E0,-2.1699563E-2,1.4875014E-2,-2.257801E-2,1.4E1,-0E0,5.394535E-3,6.508334E-2],"split_indices":[36,38,39,0,44,38,0,0,0,151,0,0,0],"split_type":[0,0,0,0,0,0,0,0,0,0,0,0,0],"sum_hessian":[9.7E1,4.1E1,5.6E1,1.8E1,2.3E1,4.6E1,1E1,1.3E1,1E1,3.4E1,1.2E1,1E1,2.4E1],"tree_param":{"num_deleted":"0","num_feature":"163","num_nodes":"13","size_leaf_vector":"1"}},{"base_weights":[-3.42976E-2,-8.737383E-2,1.2542309E-1,-1.37250265E-2,7.0966594E-2,-1.5040284E-1,1.61915E-1,5.829086E-3,-2.5752364E-2,3.3278435E-2,-1.3388996E-2],"categories":[],"categories_nodes":[],"categories_segments":[],"categories_sizes":[],"default_left":[0,0,0,0,0,0,0,0,0,0,0],"id":64,"left_children":[1,-1,3,5,-1,7,9,-1,-1,-1,-1],"loss_changes":[1.6726625E1,0E0,9.004268E0,2.3925614E0,0E0,1.6683161E0,2.716763E0,0E0,0E0,0E0,0E0],"parents":[2147483647,0,0,2,2,3,3,5,5,6,6],"right_children":[2,-1,4,6,-1,8,10,-1,-1,-1,-1],"split_conditions":[1.53E0,-8.737383E-2,7.3E0,3E1,7.0966594E-2,3E0,6.6E-1,5.829086E-3,-2.5752364E-2,3.3278435E-2,-1.3388996E-2],"split_indices":[71,0,71,7,0,118,18,0,0,0,0],"split_type":[0,0,0,0,0,0,0,0,0,0,0],"sum_hessian":[1.01E2,1E1,9.1E1,8E1,1.1E1,4.9E1,3.1E1,1.5E1,3.4E1,2.1E1,1E1],"tree_param":{"num_deleted":"0","num_feature":"163","num_nodes":"11","size_leaf_vector":"1"}},{"base_weights":[-3.2265598E-3,-2.6315737E-1,3.4806472E-1,-5.389812E-1,1.9045337E-1,5.86658E-1,-8.9775614E-4,-7.1553016E-1,-7.9156563E-4,3.8201507E-2,-8.464738E-3,9.2983246E-5,7.9743996E-2,-6.3534933E-3,-9.033995E-2],"categories":[],"categories_nodes":[],"categories_segments":[],"categories_sizes":[],"default_left":[0,0,0,0,0,0,0,0,0,0,0,0,0,0,0],"id":65,"left_children":[1,3,5,7,9,11,-1,13,-1,-1,-1,-1,-1,-1,-1],"loss_changes":[1.1423178E1,1.0633667E1,5.060118E0,3.9078684E0,2.4124913E0,3.268425E0,0E0,2.8687267E0,0E0,0E0,0E0,0E0,0E0,0E0,0E0],"parents":[2147483647,0,0,1,1,2,2,3,3,4,4,5,5,7,7],"right_children":[2,4,6,8,10,12,-1,14,-1,-1,-1,-1,-1,-1,-1],"split_conditions":[5E0,1E0,2.3E1,1E0,3E0,2E0,-8.9775614E-4,1.01E1,-7.9156563E-4,3.8201507E-2,-8.464738E-3,9.2983246E-5,7.9743996E-2,-6.3534933E-3,-9.033995E-2],"split_indices":[11,37,151,100,29,124,0,58,0,0,0,0,0,0,0],"split_type":[0,0,0,0,0,0,0,0,0,0,0,0,0,0,0],"sum_hessian":[1.06E2,6.4E1,4.2E1,4E1,2.4E1,2.3E1,1.9E1,2.6E1,1.4E1,1.4E1,1E1,1E1,1.3E1,1E1,1.6E1],"tree_param":{"num_deleted":"0","num_feature":"163","num_nodes":"15","size_leaf_vector":"1"}},{"base_weights":[-1.0161173E-2,-2.8585875E-1,2.9540223E-1,-5.7018984E-2,1.7452942E-2,-4.8873657E-3,5.252446E-1,-9.519286E-3,1.3563933E-2,-1.3213711E-2,7.1011134E-3,7.45232E-3,6.7823045E-2],"categories":[],"categories_nodes":[],"categories_segments":[],"categories_sizes":[],"default_left":[0,0,0,0,0,0,0,0,0,0,0,0,0],"id":66,"left_children":[1,3,5,-1,7,9,11,-1,-1,-1,-1,-1,-1],"loss_changes":[9.680414E0,5.99919E0,4.2040486E0,0E0,6.7546713E-1,4.5435804E-1,9.4833565E-1,0E0,0E0,0E0,0E0,0E0,0E0],"parents":[2147483647,0,0,1,1,2,2,4,4,5,5,6,6],"right_children":[2,4,6,-1,8,10,12,-1,-1,-1,-1,-1,-1],"split_conditions":[4.5E3,1E0,6.4E-1,-5.7018984E-2,4.2E-1,2E0,2.5E1,-9.519286E-3,1.3563933E-2,-1.3213711E-2,7.1011134E-3,7.45232E-3,6.7823045E-2],"split_indices":[127,117,90,0,18,160,28,0,0,0,0,0,0],"split_type":[0,0,0,0,0,0,0,0,0,0,0,0,0],"sum_hessian":[9.5E1,5.2E1,4.3E1,2.4E1,2.8E1,2.1E1,2.2E1,1.1E1,1.7E1,1E1,1.1E1,1.1E1,1.1E1],"tree_param":{"num_deleted":"0","num_feature":"163","num_nodes":"13","size_leaf_vector":"1"}},{"base_weights":[-1.4177684E-3,-1.4642537E-1,7.178315E-2,-3.599671E-1,6.774637E-2,-5.685755E-2,-5.8047986E-1,2.1972576E-1,-1.0814654E-1,-1.6732682E-2,4.9065505E-3,-7.077626E-2,-1.129572E-2,4.0626667E-2,-7.712482E-3,-2.1478653E-2,7.8987126E-4],"categories":[],"categories_nodes":[],"categories_segments":[],"categories_sizes":[],"default_left":[0,0,0,0,0,0,0,0,0,0,0,0,0,0,0,0,0],"id":67,"left_children":[1,3,-1,5,7,9,11,13,15,-1,-1,-1,-1,-1,-1,-1,-1],"loss_changes":[1.2578088E1,5.383954E0,0E0,2.8424687E0,1.926399E0,6.3330704E-1,1.6503811E-1,2.746716E0,6.0748017E-1,0E0,0E0,0E0,0E0,0E0,0E0,0E0,0E0],"parents":[2147483647,0,0,1,1,3,3,4,4,5,5,6,6,7,7,8,8],"right_children":[2,4,-1,6,8,10,12,14,16,-1,-1,-1,-1,-1,-1,-1,-1],"split_conditions":[1.8E1,1E0,7.178315E-2,3E0,6.2E0,3.7E0,4E1,2E1,1E0,-1.6732682E-2,4.9065505E-3,-7.077626E-2,-1.129572E-2,4.0626667E-2,-7.712482E-3,-2.1478653E-2,7.8987126E-4],"split_indices":[156,102,0,96,4,85,146,107,5,0,0,0,0,0,0,0,0],"split_type":[0,0,0,0,0,0,0,0,0,0,0,0,0,0,0,0,0],"sum_hessian":[1.06E2,9.6E1,1E1,4.7E1,4.9E1,2.7E1,2E1,2.8E1,2.1E1,1.5E1,1.2E1,1E1,1E1,1.7E1,1.1E1,1.1E1,1E1],"tree_param":{"num_deleted":"0","num_feature":"163","num_nodes":"17","size_leaf_vector":"1"}},{"base_weights":[-4.141183E-3,4.5035485E-2,-1.528855E-1,-4.211782E-1,5.1613502E-2,-5.42438E-2,-0E0,-2.2335275E-1,2.8866136E-1,-2.9000638E-2,-0E0,-8.9509384E-4,4.8700012E-2],"categories":[],"categories_nodes":[],"categories_segments":[],"categories_sizes":[],"default_left":[0,0,0,0,0,0,0,0,0,0,0,0,0],"id":68,"left_children":[1,-1,3,5,7,-1,-1,9,11,-1,-1,-1,-1],"loss_changes":[7.827465E0,0E0,5.6345835E0,1.7878304E0,4.555671E0,0E0,0E0,2.1969771E-1,2.7647064E0,0E0,0E0,0E0,0E0],"parents":[2147483647,0,0,2,2,3,3,4,4,7,7,8,8],"right_children":[2,-1,4,6,8,-1,-1,10,12,-1,-1,-1,-1],"split_conditions":[8E0,4.5035485E-2,2.4E3,1E0,2E0,-5.42438E-2,-0E0,2.4E1,6.2E-1,-2.9000638E-2,-0E0,-8.9509384E-4,4.8700012E-2],"split_indices":[94,0,127,158,124,0,0,84,90,0,0,0,0],"split_type":[0,0,0,0,0,0,0,0,0,0,0,0,0],"sum_hessian":[1E2,1.8E1,8.2E1,3.3E1,4.9E1,2.2E1,1.1E1,2.1E1,2.8E1,1.1E1,1E1,1.3E1,1.5E1],"tree_param":{"num_deleted":"0","num_feature":"163","num_nodes":"13","size_leaf_vector":"1"}},{"base_weights":[-6.459775E-2,5.9170768E-2,-7.197067E-2,-6.089758E-2,3.3841717E-1,-2.4610196E-1,1.326352E-1,-0E0,4.623623E-2,-3.7627462E-2,-0E0,-1.6339207E-2,3.7471745E-2],"categories":[],"categories_nodes":[],"categories_segments":[],"categories_sizes":[],"default_left":[0,0,0,0,0,0,0,0,0,0,0,0,0],"id":69,"left_children":[1,3,-1,5,7,9,11,-1,-1,-1,-1,-1,-1],"loss_changes":[1.0248643E1,3.937059E0,0E0,3.2356477E0,1.1222773E0,1.6030157E0,3.8334274E0,0E0,0E0,0E0,0E0,0E0,0E0],"parents":[2147483647,0,0,1,1,3,3,4,4,5,5,6,6],"right_children":[2,4,-1,6,8,10,12,-1,-1,-1,-1,-1,-1],"split_conditions":[6.25E2,4E1,-7.197067E-2,3.3E-1,4.5E-1,1E0,2E0,-0E0,4.623623E-2,-3.7627462E-2,-0E0,-1.6339207E-2,3.7471745E-2],"split_indices":[31,84,0,51,17,89,124,0,0,0,0,0,0],"split_type":[0,0,0,0,0,0,0,0,0,0,0,0,0],"sum_hessian":[1.03E2,9.3E1,1E1,6.8E1,2.5E1,3.6E1,3.2E1,1.1E1,1.4E1,2.1E1,1.5E1,1.4E1,1.8E1],"tree_param":{"num_deleted":"0","num_feature":"163","num_nodes":"13","size_leaf_vector":"1"}},{"base_weights":[-0E0,1.472998E-1,-6.837212E-2,3.5761198E-1,-6.778849E-2,-0E0,5.550325E-1,-2.3237796E-1,1.3820062E-2,9.446792E-3,6.573774E-2,-2.9879967E-2,-0E0],"categories":[],"categories_nodes":[],"categories_segments":[],"categories_sizes":[],"default_left":[0,0,0,0,0,0,0,0,0,0,0,0,0],"id":70,"left_children":[1,3,-1,5,7,-1,9,11,-1,-1,-1,-1,-1],"loss_changes":[1.1497519E1,5.0105762E0,0E0,4.1843376E0,2.280025E0,0E0,3.2405472E-1,3.2333028E-1,0E0,0E0,0E0,0E0,0E0],"parents":[2147483647,0,0,1,1,3,3,4,4,6,6,7,7],"right_children":[2,4,-1,6,8,-1,10,12,-1,-1,-1,-1,-1],"split_conditions":[6.25E2,1E1,-6.837212E-2,1.4E-1,2.3E1,-0E0,1E0,5E0,1.3820062E-2,9.446792E-3,6.573774E-2,-2.9879967E-2,-0E0],"split_indices":[31,25,0,50,140,0,36,10,0,0,0,0,0],"split_type":[0,0,0,0,0,0,0,0,0,0,0,0,0],"sum_hessian":[9.9E1,8.9E1,1E1,4.4E1,4.5E1,1.8E1,2.6E1,2.7E1,1.8E1,1E1,1.6E1,1.6E1,1.1E1],"tree_param":{"num_deleted":"0","num_feature":"163","num_nodes":"13","size_leaf_vector":"1"}},{"base_weights":[4.0462583E-2,-8.266704E-2,6.7356646E-2,-2.5415096E-1,1.6282481E-1,-4.316817E-1,1.3129957E-2,2.5346756E-2,-9.530385E-4,-5.650691E-2,-0E0,1.956196E-2,-1.0778709E-2],"categories":[],"categories_nodes":[],"categories_segments":[],"categories_sizes":[],"default_left":[0,0,0,0,0,0,0,0,0,0,0,0,0],"id":71,"left_children":[1,3,-1,5,7,9,11,-1,-1,-1,-1,-1,-1],"loss_changes":[9.566731E0,4.6307416E0,0E0,3.5120687E0,9.5549464E-1,2.2580824E0,1.0268668E0,0E0,0E0,0E0,0E0,0E0,0E0],"parents":[2147483647,0,0,1,1,3,3,4,4,5,5,6,6],"right_children":[2,4,-1,6,8,10,12,-1,-1,-1,-1,-1,-1],"split_conditions":[6.24E0,3.2E1,6.7356646E-2,3.5E1,5.8E-1,1E0,4E0,2.5346756E-2,-9.530385E-4,-5.650691E-2,-0E0,1.956196E-2,-1.0778709E-2],"split_indices":[62,84,0,2,144,37,24,0,0,0,0,0,0],"split_type":[0,0,0,0,0,0,0,0,0,0,0,0,0],"sum_hessian":[9.8E1,8.8E1,1E1,5.4E1,3.4E1,3.1E1,2.3E1,2.3E1,1.1E1,2.1E1,1E1,1E1,1.3E1],"tree_param":{"num_deleted":"0","num_feature":"163","num_nodes":"13","size_leaf_vector":"1"}},{"base_weights":[4.2358125E-3,-2.1536769E-1,3.396177E-1,-5.731052E-2,-2.2458546E-2,4.997449E-3,7.517135E-2,-1.685271E-1,1.3157986E-1,1.8919816E-2,-1.4729388E-2,-0E0,-2.5186334E-2,-4.1744234E-3,2.9778022E-2],"categories":[],"categories_nodes":[],"categories_segments":[],"categories_sizes":[],"default_left":[0,0,0,0,0,0,0,0,0,0,0,0,0,0,0],"id":72,"left_children":[1,3,5,-1,7,9,-1,11,13,-1,-1,-1,-1,-1,-1],"loss_changes":[9.104592E0,4.244506E0,6.100503E0,0E0,1.5862049E0,1.4146162E0,0E0,6.969315E-1,1.2733445E0,0E0,0E0,0E0,0E0,0E0,0E0],"parents":[2147483647,0,0,1,1,2,2,4,4,5,5,7,7,8,8],"right_children":[2,4,6,-1,8,10,-1,12,14,-1,-1,-1,-1,-1,-1],"split_conditions":[4E0,4E0,3E0,-5.731052E-2,2.5E1,7.7E1,7.517135E-2,7.1E1,3.4E-1,1.8919816E-2,-1.4729388E-2,-0E0,-2.5186334E-2,-4.1744234E-3,2.9778022E-2],"split_indices":[152,145,124,0,84,105,0,78,131,0,0,0,0,0,0],"split_type":[0,0,0,0,0,0,0,0,0,0,0,0,0,0,0],"sum_hessian":[1.02E2,6.2E1,4E1,1.3E1,4.9E1,2.9E1,1.1E1,2.8E1,2.1E1,1.5E1,1.4E1,1E1,1.8E1,1.1E1,1E1],"tree_param":{"num_deleted":"0","num_feature":"163","num_nodes":"15","size_leaf_vector":"1"}},{"base_weights":[-2.2961993E-2,-2.630159E-1,3.4124574E-1,-4.0807563E-1,6.1703306E-3,-1.1093048E-2,6.2808275E-1,-9.724591E-2,-6.872036E-2,1.2683036E-2,-7.5554624E-3,2.6920137E-3,8.952621E-2,-0E0,-1.727433E-2],"categories":[],"categories_nodes":[],"categories_segments":[],"categories_sizes":[],"default_left":[0,0,0,0,0,0,0,0,0,0,0,0,0,0,0],"id":73,"left_children":[1,3,5,7,9,-1,11,13,-1,-1,-1,-1,-1,-1,-1],"loss_changes":[1.0349115E1,3.2775946E0,7.180128E0,2.8853369E0,4.7251278E-1,0E0,3.815978E0,4.2594585E-1,0E0,0E0,0E0,0E0,0E0,0E0,0E0],"parents":[2147483647,0,0,1,1,2,2,3,3,4,4,6,6,7,7],"right_children":[2,4,6,8,10,-1,12,14,-1,-1,-1,-1,-1,-1,-1],"split_conditions":[7.2E-1,3.9E-1,2E0,2E0,3.4E1,-1.1093048E-2,1E0,3.5E1,-6.872036E-2,1.2683036E-2,-7.5554624E-3,2.6920137E-3,8.952621E-2,-0E0,-1.727433E-2],"split_indices":[90,144,124,96,28,0,14,35,0,0,0,0,0,0,0],"split_type":[0,0,0,0,0,0,0,0,0,0,0,0,0,0,0],"sum_hessian":[9.9E1,6.3E1,3.6E1,4E1,2.3E1,1.5E1,2.1E1,2.7E1,1.3E1,1.2E1,1.1E1,1.1E1,1E1,1.1E1,1.6E1],"tree_param":{"num_deleted":"0","num_feature":"163","num_nodes":"15","size_leaf_vector":"1"}},{"base_weights":[-6.304332E-2,-4.30433E-2,5.9393995E-2,-1.14932664E-1,2.5823992E-1,-2.7739117E-2,4.7088113E-2,4.3459687E-2,-0E0,1.4506265E-2,-2.4430465E-3,6.0993577E-3,-2.3199846E-3],"categories":[],"categories_nodes":[],"categories_segments":[],"categories_sizes":[],"default_left":[0,0,0,0,0,0,0,0,0,0,0,0,0],"id":74,"left_children":[1,-1,3,5,7,-1,9,-1,11,-1,-1,-1,-1],"loss_changes":[5.2598577E0,0E0,3.3518975E0,1.6506824E0,1.7209074E0,0E0,3.6628163E-1,0E0,8.516899E-2,0E0,0E0,0E0,0E0],"parents":[2147483647,0,0,2,2,3,3,4,4,6,6,8,8],"right_children":[2,-1,4,6,8,-1,10,-1,12,-1,-1,-1,-1],"split_conditions":[1E0,-4.30433E-2,4.5E3,1E0,8E0,-2.7739117E-2,6.1E1,4.3459687E-2,1.6E1,1.4506265E-2,-2.4430465E-3,6.0993577E-3,-2.3199846E-3],"split_indices":[74,0,127,89,154,0,44,0,107,0,0,0,0],"split_type":[0,0,0,0,0,0,0,0,0,0,0,0,0],"sum_hessian":[9.3E1,1.9E1,7.4E1,3.9E1,3.5E1,1.9E1,2E1,1.5E1,2E1,1E1,1E1,1E1,1E1],"tree_param":{"num_deleted":"0","num_feature":"163","num_nodes":"13","size_leaf_vector":"1"}},{"base_weights":[1.804924E-2,2.2184019E-1,-2.9794604E-1,3.916271E-1,-1.9763088E-2,-4.767504E-2,-0E0,2.2775361E-2,5.776742E-1,6.85791E-3,-1.072588E-2,-8.623956E-3,1.737551E-2,7.499538E-2,2.5266013E-3],"categories":[],"categories_nodes":[],"categories_segments":[],"categories_sizes":[],"default_left":[0,0,0,0,0,0,0,0,0,0,0,0,0,0,0],"id":75,"left_children":[1,3,5,7,-1,-1,9,11,13,-1,-1,-1,-1,-1,-1],"loss_changes":[8.248098E0,6.665629E0,2.2416172E0,3.5226564E0,0E0,0E0,3.2415086E-1,7.8050965E-1,2.7468758E0,0E0,0E0,0E0,0E0,0E0,0E0],"parents":[2147483647,0,0,1,1,2,2,3,3,6,6,7,7,8,8],"right_children":[2,4,6,8,-1,-1,10,12,14,-1,-1,-1,-1,-1,-1],"split_conditions":[1.8E1,7.9E-1,1E0,2E0,-1.9763088E-2,-4.767504E-2,4.8E1,6.7E1,1.3E1,6.85791E-3,-1.072588E-2,-8.623956E-3,1.737551E-2,7.499538E-2,2.5266013E-3],"split_indices":[107,18,5,124,0,0,35,76,25,0,0,0,0,0,0],"split_type":[0,0,0,0,0,0,0,0,0,0,0,0,0,0,0],"sum_hessian":[1.09E2,7E1,3.9E1,5.2E1,1.8E1,1.9E1,2E1,2.3E1,2.9E1,1E1,1E1,1.2E1,1.1E1,1.8E1,1.1E1],"tree_param":{"num_deleted":"0","num_feature":"163","num_nodes":"15","size_leaf_vector":"1"}},{"base_weights":[3.9774994E-3,-5.538516E-2,1.2889303E-1,-1.7547326E-2,3.7681648E-1,-1.3451609E-1,8.97822E-2,-0E0,6.1183214E-2,5.7659694E-3,-2.5753377E-2,-0E0,1.798716E-2],"categories":[],"categories_nodes":[],"categories_segments":[],"categories_sizes":[],"default_left":[0,0,0,0,0,0,0,0,0,0,0,0,0],"id":76,"left_children":[1,-1,3,5,7,9,11,-1,-1,-1,-1,-1,-1],"loss_changes":[7.74484E0,0E0,3.9470725E0,1.0191911E0,3.4464903E0,1.3176492E0,4.4588602E-1,0E0,0E0,0E0,0E0,0E0,0E0],"parents":[2147483647,0,0,2,2,3,3,4,4,5,5,6,6],"right_children":[2,-1,4,6,8,10,12,-1,-1,-1,-1,-1,-1],"split_conditions":[1.3E1,-5.538516E-2,3E0,2E-1,3.3E-1,5.4E1,7.7E1,-0E0,6.1183214E-2,5.7659694E-3,-2.5753377E-2,-0E0,1.798716E-2],"split_indices":[78,0,124,50,51,105,76,0,0,0,0,0,0],"split_type":[0,0,0,0,0,0,0,0,0,0,0,0,0],"sum_hessian":[9.7E1,1E1,8.7E1,5.8E1,2.9E1,3.1E1,2.7E1,1.5E1,1.4E1,1.1E1,2E1,1.4E1,1.3E1],"tree_param":{"num_deleted":"0","num_feature":"163","num_nodes":"13","size_leaf_vector":"1"}},{"base_weights":[2.043847E-2,-1.5548366E-1,2.7625057E-1,-4.1821767E-2,-0E0,4.5643082E-1,-9.748761E-3,-9.292433E-2,1.6556306E-2,3.9722584E-3,7.0368364E-2,2.2320866E-3,-2.4953278E-2],"categories":[],"categories_nodes":[],"categories_segments":[],"categories_sizes":[],"default_left":[0,0,0,0,0,0,0,0,0,0,0,0,0],"id":77,"left_children":[1,3,5,-1,7,9,-1,11,-1,-1,-1,-1,-1],"loss_changes":[5.8606462E0,2.758594E0,4.4402795E0,0E0,1.0002517E0,3.098363E0,0E0,1.1131349E0,0E0,0E0,0E0,0E0,0E0],"parents":[2147483647,0,0,1,1,2,2,4,4,5,5,7,7],"right_children":[2,4,6,-1,8,10,-1,12,-1,-1,-1,-1,-1],"split_conditions":[1E0,1E0,6.2E0,-4.1821767E-2,1E0,2.1E-1,-9.748761E-3,4.2E1,1.6556306E-2,3.9722584E-3,7.0368364E-2,2.2320866E-3,-2.4953278E-2],"split_indices":[138,137,4,0,37,50,0,35,0,0,0,0,0],"split_type":[0,0,0,0,0,0,0,0,0,0,0,0,0],"sum_hessian":[1.08E2,6.4E1,4.4E1,1.6E1,4.8E1,3E1,1.4E1,3.6E1,1.2E1,1.7E1,1.3E1,2.2E1,1.4E1],"tree_param":{"num_deleted":"0","num_feature":"163","num_nodes":"13","size_leaf_vector":"1"}},{"base_weights":[1.5885817E-2,-4.6930358E-2,1.3460034E-1,5.2057233E-2,1.8905595E-2,-6.2134616E-2,1.7223956E-1,1.2508447E-2,-1.50099E-2,-0E0,2.8521314E-2],"categories":[],"categories_nodes":[],"categories_segments":[],"categories_sizes":[],"default_left":[0,0,0,0,0,0,0,0,0,0,0],"id":78,"left_children":[1,-1,3,-1,5,7,9,-1,-1,-1,-1],"loss_changes":[6.5752745E0,0E0,3.6936321E0,0E0,1.2982062E0,1.2008817E0,7.7331114E-1,0E0,0E0,0E0,0E0],"parents":[2147483647,0,0,2,2,4,4,5,5,6,6],"right_children":[2,-1,4,-1,6,8,10,-1,-1,-1,-1],"split_conditions":[1.3E1,-4.6930358E-2,2.7E1,5.2057233E-2,1E0,1.8E0,3E-1,1.2508447E-2,-1.50099E-2,-0E0,2.8521314E-2],"split_indices":[78,0,82,0,120,62,131,0,0,0,0],"split_type":[0,0,0,0,0,0,0,0,0,0,0],"sum_hessian":[9.9E1,1.2E1,8.7E1,1E1,7.7E1,5E1,2.7E1,1.1E1,3.9E1,1.4E1,1.3E1],"tree_param":{"num_deleted":"0","num_feature":"163","num_nodes":"11","size_leaf_vector":"1"}},{"base_weights":[-3.923341E-2,-3.3883113E-1,1.12310246E-1,-5.0769944E-2,-0E0,-5.11055E-2,4.2462772E-1,-1.5585062E-1,1.2928327E-2,-0E0,6.180681E-2,-0E0,-2.9016634E-2],"categories":[],"categories_nodes":[],"categories_segments":[],"categories_sizes":[],"default_left":[0,0,0,0,0,0,0,0,0,0,0,0,0],"id":79,"left_children":[1,3,5,-1,-1,7,9,11,-1,-1,-1,-1,-1],"loss_changes":[5.782906E0,2.0228038E0,4.7245755E0,0E0,0E0,1.3617467E0,2.0505943E0,1.1559929E0,0E0,0E0,0E0,0E0,0E0],"parents":[2147483647,0,0,1,1,2,2,5,5,6,6,7,7],"right_children":[2,4,6,-1,-1,8,10,12,-1,-1,-1,-1,-1],"split_conditions":[4.3E-1,1E0,7.3E-1,-5.0769944E-2,-0E0,1E0,3E0,7.4E-1,1.2928327E-2,-0E0,6.180681E-2,-0E0,-2.9016634E-2],"split_indices":[18,100,90,0,0,37,10,18,0,0,0,0,0],"split_type":[0,0,0,0,0,0,0,0,0,0,0,0,0],"sum_hessian":[1.04E2,3.3E1,7.1E1,1.7E1,1.6E1,5E1,2.1E1,3.6E1,1.4E1,1.1E1,1E1,1.9E1,1.7E1],"tree_param":{"num_deleted":"0","num_feature":"163","num_nodes":"13","size_leaf_vector":"1"}},{"base_weights":[4.9496025E-2,-2.834191E-1,2.0799981E-1,-4.249485E-2,6.43158E-4,1.2213949E-2,4.571577E-1,-1.2499469E-2,1.2732863E-1,6.361202E-2,5.151467E-3,2.3540547E-2,-0E0],"categories":[],"categories_nodes":[],"categories_segments":[],"categories_sizes":[],"default_left":[0,0,0,0,0,0,0,0,0,0,0,0,0],"id":80,"left_children":[1,3,5,-1,-1,7,9,-1,11,-1,-1,-1,-1],"loss_changes":[6.3713746E0,2.0046983E0,3.523663E0,0E0,0E0,1.093377E0,1.4528961E0,0E0,6.09846E-1,0E0,0E0,0E0,0E0],"parents":[2147483647,0,0,1,1,2,2,5,5,6,6,8,8],"right_children":[2,4,6,-1,-1,8,10,-1,12,-1,-1,-1,-1],"split_conditions":[1E0,1E0,1E0,-4.249485E-2,6.43158E-4,5.4E3,4.8E-2,-1.2499469E-2,2.2E1,6.361202E-2,5.151467E-3,2.3540547E-2,-0E0],"split_indices":[137,102,23,0,0,132,33,0,27,0,0,0,0],"split_type":[0,0,0,0,0,0,0,0,0,0,0,0,0],"sum_hessian":[1.01E2,2.8E1,7.3E1,1.8E1,1E1,4.9E1,2.4E1,1.8E1,3.1E1,1.1E1,1.3E1,1.3E1,1.8E1],"tree_param":{"num_deleted":"0","num_feature":"163","num_nodes":"13","size_leaf_vector":"1"}},{"base_weights":[5.7458825E-2,-2.0642573E-2,4.731415E-2,1.22875564E-1,-1.7576885E-1,2.0968285E-1,-2.5166322E-3,-3.2675496E-1,8.331656E-3,-0E0,3.0476863E-2,-0E0,-4.8221465E-2,1.7961157E-2,-1.1929667E-2],"categories":[],"categories_nodes":[],"categories_segments":[],"categories_sizes":[],"default_left":[0,0,0,0,0,0,0,0,0,0,0,0,0,0,0],"id":81,"left_children":[1,3,-1,5,7,9,-1,11,13,-1,-1,-1,-1,-1,-1],"loss_changes":[4.1538267E0,2.5174773E0,0E0,9.440973E-1,1.902258E0,1.0278416E0,0E0,1.4855423E0,9.7411084E-1,0E0,0E0,0E0,0E0,0E0,0E0],"parents":[2147483647,0,0,1,1,3,3,4,4,5,5,7,7,8,8],"right_children":[2,4,-1,6,8,10,-1,12,14,-1,-1,-1,-1,-1,-1],"split_conditions":[6.24E0,7.7E1,4.731415E-2,2.16E2,2E0,2E0,-2.5166322E-3,2.8E-1,5.7E1,-0E0,3.0476863E-2,-0E0,-4.8221465E-2,1.7961157E-2,-1.1929667E-2],"split_indices":[62,105,0,64,38,1,0,131,44,0,0,0,0,0,0],"split_type":[0,0,0,0,0,0,0,0,0,0,0,0,0,0,0],"sum_hessian":[1.01E2,9.1E1,1E1,4.5E1,4.6E1,3E1,1.5E1,2.4E1,2.2E1,1E1,2E1,1.2E1,1.2E1,1.1E1,1.1E1],"tree_param":{"num_deleted":"0","num_feature":"163","num_nodes":"15","size_leaf_vector":"1"}},{"base_weights":[-0E0,1.7131053E-1,-2.3307258E-1,-0E0,3.351956E-1,-3.5999748E-1,2.9283142E-4,9.873436E-3,-9.6225865E-2,-0E0,5.0339963E-2,-5.0546438E-2,-5.3806305E-3,-1.4379156E-2,-0E0],"categories":[],"categories_nodes":[],"categories_segments":[],"categories_sizes":[],"default_left":[0,0,0,0,0,0,0,0,0,0,0,0,0,0,0],"id":82,"left_children":[1,3,5,7,9,11,-1,-1,13,-1,-1,-1,-1,-1,-1],"loss_changes":[4.854122E0,2.2982287E0,1.8952854E0,4.9175984E-1,2.2068043E0,7.7222204E-1,0E0,0E0,1.4715439E-1,0E0,0E0,0E0,0E0,0E0,0E0],"parents":[2147483647,0,0,1,1,2,2,3,3,4,4,5,5,8,8],"right_children":[2,4,6,8,10,12,-1,-1,14,-1,-1,-1,-1,-1,-1],"split_conditions":[1.8E1,6.9E-1,4.2E1,5.8E-1,3E0,1E0,2.9283142E-4,9.873436E-3,7.1E-1,-0E0,5.0339963E-2,-5.0546438E-2,-5.3806305E-3,-1.4379156E-2,-0E0],"split_indices":[107,90,2,18,10,138,0,0,34,0,0,0,0,0,0],"split_type":[0,0,0,0,0,0,0,0,0,0,0,0,0,0,0],"sum_hessian":[1.02E2,6.1E1,4.1E1,3.2E1,2.9E1,2.6E1,1.5E1,1.1E1,2.1E1,1.3E1,1.6E1,1.1E1,1.5E1,1.1E1,1E1],"tree_param":{"num_deleted":"0","num_feature":"163","num_nodes":"15","size_leaf_vector":"1"}},{"base_weights":[4.106254E-3,-1.6980015E-1,2.3240219E-1,-2.8368303E-1,4.66917E-3,3.7621158E-1,-5.6406097E-3,-3.6462292E-1,-0E0,-2.0879663E-4,5.8831066E-2,-4.4435173E-2,-2.0691107E-3],"categories":[],"categories_nodes":[],"categories_segments":[],"categories_sizes":[],"default_left":[0,0,0,0,0,0,0,0,0,0,0,0,0],"id":83,"left_children":[1,3,5,7,-1,9,-1,11,-1,-1,-1,-1,-1],"loss_changes":[4.9832635E0,2.0459683E0,2.8578792E0,1.1087677E0,0E0,3.8882227E0,0E0,4.8502493E-1,0E0,0E0,0E0,0E0,0E0],"parents":[2147483647,0,0,1,1,2,2,3,3,5,5,7,7],"right_children":[2,4,6,8,-1,10,-1,12,-1,-1,-1,-1,-1],"split_conditions":[1E0,3.1E1,6.2E0,5.1E-2,4.66917E-3,2E0,-5.6406097E-3,1E0,-0E0,-2.0879663E-4,5.8831066E-2,-4.4435173E-2,-2.0691107E-3],"split_indices":[138,7,4,33,0,124,0,161,0,0,0,0,0],"split_type":[0,0,0,0,0,0,0,0,0,0,0,0,0],"sum_hessian":[1.04E2,5.8E1,4.6E1,3.9E1,1.9E1,3.1E1,1.5E1,2.8E1,1.1E1,1.3E1,1.8E1,1.8E1,1E1],"tree_param":{"num_deleted":"0","num_feature":"163","num_nodes":"13","size_leaf_vector":"1"}},{"base_weights":[1.1721191E-2,1.4945741E-1,-2.2270809E-1,-1.542155E-2,3.37892E-1,-4.392908E-2,1.3782632E-3,-1.8334892E-2,9.305651E-2,4.6950817E-2,1.8847785E-4,-4.2518615E-3,2.3178777E-2],"categories":[],"categories_nodes":[],"categories_segments":[],"categories_sizes":[],"default_left":[0,0,0,0,0,0,0,0,0,0,0,0,0],"id":84,"left_children":[1,3,5,7,9,-1,-1,-1,11,-1,-1,-1,-1],"loss_changes":[4.0697527E0,2.9532967E0,2.790945E0,1.1899486E0,1.3771653E0,0E0,0E0,0E0,9.273113E-1,0E0,0E0,0E0,0E0],"parents":[2147483647,0,0,1,1,2,2,3,3,4,4,8,8],"right_children":[2,4,6,8,10,-1,-1,-1,12,-1,-1,-1,-1],"split_conditions":[3E0,3.5E-1,1E0,3.6E0,1.8E1,-4.392908E-2,1.3782632E-3,-1.8334892E-2,5.4E-1,4.6950817E-2,1.8847785E-4,-4.2518615E-3,2.3178777E-2],"split_indices":[96,51,13,85,107,0,0,0,40,0,0,0,0],"split_type":[0,0,0,0,0,0,0,0,0,0,0,0,0],"sum_hessian":[1.08E2,7.3E1,3.5E1,4.1E1,3.2E1,1.6E1,1.9E1,1.7E1,2.4E1,1.8E1,1.4E1,1.2E1,1.2E1],"tree_param":{"num_deleted":"0","num_feature":"163","num_nodes":"13","size_leaf_vector":"1"}},{"base_weights":[-0E0,-1.4151387E-1,3.0719674E-1,-2.8509083E-1,4.115696E-2,5.6679405E-2,-0E0,-5.604294E-2,-0E0,1.5372966E-2,-5.627887E-3,-7.660612E-3,8.022461E-3],"categories":[],"categories_nodes":[],"categories_segments":[],"categories_sizes":[],"default_left":[0,0,0,0,0,0,0,0,0,0,0,0,0],"id":85,"left_children":[1,3,5,7,9,-1,-1,-1,11,-1,-1,-1,-1],"loss_changes":[5.242465E0,2.4069998E0,2.7446854E0,3.6366613E0,6.227127E-1,0E0,0E0,0E0,2.6956367E-1,0E0,0E0,0E0,0E0],"parents":[2147483647,0,0,1,1,2,2,3,3,4,4,8,8],"right_children":[2,4,6,8,10,-1,-1,-1,12,-1,-1,-1,-1],"split_conditions":[7.9E-1,3E0,3E0,1E0,3.4E1,5.6679405E-2,-0E0,-5.604294E-2,6.7E-1,1.5372966E-2,-5.627887E-3,-7.660612E-3,8.022461E-3],"split_indices":[90,134,119,95,27,0,0,0,17,0,0,0,0],"split_type":[0,0,0,0,0,0,0,0,0,0,0,0,0],"sum_hessian":[9.7E1,6.8E1,2.9E1,3.8E1,3E1,1E1,1.9E1,1.4E1,2.4E1,1.6E1,1.4E1,1.4E1,1E1],"tree_param":{"num_deleted":"0","num_feature":"163","num_nodes":"13","size_leaf_vector":"1"}},{"base_weights":[-0E0,9.287522E-2,-4.8120674E-2,-0E0,4.347432E-2,7.039027E-2,-1.7783206E-2,1.58202E-2,-1.0410691E-2],"categories":[],"categories_nodes":[],"categories_segments":[],"categories_sizes":[],"default_left":[0,0,0,0,0,0,0,0,0],"id":86,"left_children":[1,3,-1,5,-1,7,-1,-1,-1],"loss_changes":[5.5800366E0,3.209197E0,0E0,1.281862E0,0E0,1.4446261E0,0E0,0E0,0E0],"parents":[2147483647,0,0,1,1,3,3,5,5],"right_children":[2,4,-1,6,-1,8,-1,-1,-1],"split_conditions":[6.25E2,3.2E1,-4.8120674E-2,6.31E0,4.347432E-2,4E0,-1.7783206E-2,1.58202E-2,-1.0410691E-2],"split_indices":[31,145,0,71,0,136,0,0,0],"split_type":[0,0,0,0,0,0,0,0,0],"sum_hessian":[1.1E2,1E2,1E1,8.8E1,1.2E1,7E1,1.8E1,5.1E1,1.9E1],"tree_param":{"num_deleted":"0","num_feature":"163","num_nodes":"9","size_leaf_vector":"1"}},{"base_weights":[2.2753342E-3,3.8344424E-2,-6.102115E-2,3.1539768E-2,-2.588364E-1,1.6832547E-1,-7.5495265E-2,-3.5432667E-2,-0E0,2.7350027E-2,-2.8858185E-3,-1.8346215E-2,8.022413E-3],"categories":[],"categories_nodes":[],"categories_segments":[],"categories_sizes":[],"default_left":[0,0,0,0,0,0,0,0,0,0,0,0,0],"id":87,"left_children":[1,-1,3,5,7,9,11,-1,-1,-1,-1,-1,-1],"loss_changes":[3.33097E0,0E0,2.231479E0,1.3472543E0,8.4392095E-1,1.173858E0,1.0237956E0,0E0,0E0,0E0,0E0,0E0,0E0],"parents":[2147483647,0,0,2,2,3,3,4,4,5,5,6,6],"right_children":[2,-1,4,6,8,10,12,-1,-1,-1,-1,-1,-1],"split_conditions":[6E0,3.8344424E-2,6.2E-1,1.3E1,3E0,1.65E2,2E1,-3.5432667E-2,-0E0,2.7350027E-2,-2.8858185E-3,-1.8346215E-2,8.022413E-3],"split_indices":[31,0,133,60,38,78,94,0,0,0,0,0,0],"split_type":[0,0,0,0,0,0,0,0,0,0,0,0,0],"sum_hessian":[1.05E2,1E1,9.5E1,6.7E1,2.8E1,3.1E1,3.6E1,1.7E1,1.1E1,2.1E1,1E1,2.4E1,1.2E1],"tree_param":{"num_deleted":"0","num_feature":"163","num_nodes":"13","size_leaf_vector":"1"}},{"base_weights":[5.59789E-3,-2.3372608E-1,1.4712821E-1,-4.0207822E-2,1.1389256E-3,-0E0,3.3780202E-1,-8.321392E-2,8.103505E-3,4.493936E-3,4.6402507E-2,-0E0,-1.6195811E-2],"categories":[],"categories_nodes":[],"categories_segments":[],"categories_sizes":[],"default_left":[0,0,0,0,0,0,0,0,0,0,0,0,0],"id":88,"left_children":[1,3,5,-1,-1,7,9,11,-1,-1,-1,-1,-1],"loss_changes":[3.88154E0,2.128376E0,2.3487072E0,0E0,0E0,4.1273525E-1,5.763161E-1,3.67865E-1,0E0,0E0,0E0,0E0,0E0],"parents":[2147483647,0,0,1,1,2,2,5,5,6,6,7,7],"right_children":[2,4,6,-1,-1,8,10,12,-1,-1,-1,-1,-1],"split_conditions":[2.4E-1,1E0,5E0,-4.0207822E-2,1.1389256E-3,5E0,1E0,1E0,8.103505E-3,4.493936E-3,4.6402507E-2,-0E0,-1.6195811E-2],"split_indices":[144,37,42,0,0,11,69,14,0,0,0,0,0],"split_type":[0,0,0,0,0,0,0,0,0,0,0,0,0],"sum_hessian":[9.7E1,3.1E1,6.6E1,1.7E1,1.4E1,4.1E1,2.5E1,2.4E1,1.7E1,1.4E1,1.1E1,1.1E1,1.3E1],"tree_param":{"num_deleted":"0","num_feature":"163","num_nodes":"13","size_leaf_vector":"1"}},{"base_weights":[-8.730548E-3,-1.7543085E-1,1.4593758E-1,-2.768952E-1,9.40687E-3,-2.2191837E-2,2.9256335E-1,-0E0,-3.5455427E-1,-1.3462205E-2,5.152047E-3,-0E0,4.3102648E-2,-4.5659434E-2,-1.8069529E-3],"categories":[],"categories_nodes":[],"categories_segments":[],"categories_sizes":[],"default_left":[0,0,0,0,0,0,0,0,0,0,0,0,0,0,0],"id":89,"left_children":[1,3,5,7,-1,9,11,-1,13,-1,-1,-1,-1,-1,-1],"loss_changes":[3.2505832E0,2.166008E0,1.8637273E0,1.1181312E0,0E0,4.425217E-1,1.84921E0,0E0,8.162284E-1,0E0,0E0,0E0,0E0,0E0,0E0],"parents":[2147483647,0,0,1,1,2,2,3,3,5,5,6,6,8,8],"right_children":[2,4,6,8,-1,10,12,-1,14,-1,-1,-1,-1,-1,-1],"split_conditions":[3.3E-1,4E1,4.7E0,2.2E1,9.40687E-3,4.5E-1,2E0,-0E0,3E0,-1.3462205E-2,5.152047E-3,-0E0,4.3102648E-2,-4.5659434E-2,-1.8069529E-3],"split_indices":[51,146,56,2,0,51,124,0,38,0,0,0,0,0,0],"split_type":[0,0,0,0,0,0,0,0,0,0,0,0,0,0,0],"sum_hessian":[1.05E2,5.3E1,5.2E1,4.1E1,1.2E1,2.5E1,2.7E1,1.1E1,3E1,1.2E1,1.3E1,1E1,1.7E1,1.8E1,1.2E1],"tree_param":{"num_deleted":"0","num_feature":"163","num_nodes":"15","size_leaf_vector":"1"}},{"base_weights":[-3.3676706E-2,-3.9821025E-2,3.5359103E-2,-2.389226E-2,2.4253288E-2,-1.4316931E-1,5.630783E-2,-2.437973E-2,-0E0,-5.973703E-3,1.6449368E-2],"categories":[],"categories_nodes":[],"categories_segments":[],"categories_sizes":[],"default_left":[0,0,0,0,0,0,0,0,0,0,0],"id":90,"left_children":[1,-1,3,5,-1,7,9,-1,-1,-1,-1],"loss_changes":[3.1712368E0,0E0,1.4550188E0,9.3275934E-1,0E0,5.4715586E-1,8.307408E-1,0E0,0E0,0E0,0E0],"parents":[2147483647,0,0,2,2,3,3,5,5,6,6],"right_children":[2,-1,4,6,-1,8,10,-1,-1,-1,-1],"split_conditions":[1.3E1,-3.9821025E-2,4.5E4,6E0,2.4253288E-2,3E0,2.3E1,-2.437973E-2,-0E0,-5.973703E-3,1.6449368E-2],"split_indices":[78,0,127,10,0,42,91,0,0,0,0],"split_type":[0,0,0,0,0,0,0,0,0,0,0],"sum_hessian":[9.6E1,1E1,8.6E1,7E1,1.6E1,3E1,4E1,1.3E1,1.7E1,1.7E1,2.3E1],"tree_param":{"num_deleted":"0","num_feature":"163","num_nodes":"11","size_leaf_vector":"1"}},{"base_weights":[3.0206293E-2,-1.2164874E-1,2.9060882E-1,-3.160071E-1,-0E0,-0E0,4.0936083E-2,-4.345151E-2,-5.043756E-4,1.574265E-2,-6.773177E-2,3.0779156E-3,-1.909713E-2],"categories":[],"categories_nodes":[],"categories_segments":[],"categories_sizes":[],"default_left":[0,0,0,0,0,0,0,0,0,0,0,0,0],"id":91,"left_children":[1,3,5,7,9,-1,-1,-1,-1,-1,11,-1,-1],"loss_changes":[4.9908905E0,1.9709959E0,1.8958561E0,6.809261E-1,7.4249464E-1,0E0,0E0,0E0,0E0,0E0,7.410105E-1,0E0,0E0],"parents":[2147483647,0,0,1,1,2,2,3,3,4,4,10,10],"right_children":[2,4,6,8,10,-1,-1,-1,-1,-1,12,-1,-1],"split_conditions":[4E0,3.9E-1,1E0,1E0,3E0,-0E0,4.0936083E-2,-4.345151E-2,-5.043756E-4,1.574265E-2,3.2E1,3.0779156E-3,-1.909713E-2],"split_indices":[152,18,32,121,119,0,0,0,0,0,35,0,0],"split_type":[0,0,0,0,0,0,0,0,0,0,0,0,0],"sum_hessian":[1.03E2,6.6E1,3.7E1,2.1E1,4.5E1,1.2E1,2.5E1,1E1,1.1E1,1.2E1,3.3E1,1.8E1,1.5E1],"tree_param":{"num_deleted":"0","num_feature":"163","num_nodes":"13","size_leaf_vector":"1"}},{"base_weights":[-0E0,-7.075363E-2,3.6530267E-2,-1.8336336E-1,5.7887517E-2,-2.685126E-1,4.8050103E-3,-8.622029E-3,1.5367225E-1,-0E0,-3.4724355E-2,-0E0,2.168717E-2],"categories":[],"categories_nodes":[],"categories_segments":[],"categories_sizes":[],"default_left":[0,0,0,0,0,0,0,0,0,0,0,0,0],"id":92,"left_children":[1,3,-1,5,7,9,-1,-1,11,-1,-1,-1,-1],"loss_changes":[3.1895528E0,1.7381898E0,0E0,1.5711734E0,9.177216E-1,1.2181718E0,0E0,0E0,3.018756E-1,0E0,0E0,0E0,0E0],"parents":[2147483647,0,0,1,1,3,3,4,4,5,5,8,8],"right_children":[2,4,-1,6,8,10,-1,-1,12,-1,-1,-1,-1],"split_conditions":[5.97E2,1E0,3.6530267E-2,4.6E1,3.9E1,1.8E-1,4.8050103E-3,-8.622029E-3,1E0,-0E0,-3.4724355E-2,-0E0,2.168717E-2],"split_indices":[78,89,0,146,76,147,0,0,20,0,0,0,0],"split_type":[0,0,0,0,0,0,0,0,0,0,0,0,0],"sum_hessian":[1.04E2,9.4E1,1E1,5.2E1,4.2E1,4E1,1.2E1,1.3E1,2.9E1,1E1,3E1,1.3E1,1.6E1],"tree_param":{"num_deleted":"0","num_feature":"163","num_nodes":"13","size_leaf_vector":"1"}},{"base_weights":[9.3535276E-4,-1.7494893E-1,2.7274162E-1,-3.319499E-1,5.7097465E-2,-0E0,3.986991E-1,-4.5503223E-1,-0E0,-8.93383E-4,1.3316927E-2,5.009516E-2,6.384005E-3,-7.347034E-3,-5.781561E-2],"categories":[],"categories_nodes":[],"categories_segments":[],"categories_sizes":[],"default_left":[0,0,0,0,0,0,0,0,0,0,0,0,0,0,0],"id":93,"left_children":[1,3,5,7,9,-1,11,13,-1,-1,-1,-1,-1,-1,-1],"loss_changes":[5.546821E0,2.9052985E0,1.4315557E0,1.570292E0,3.018955E-1,0E0,1.7684555E-1,3.7996054E-1,0E0,0E0,0E0,0E0,0E0,0E0,0E0],"parents":[2147483647,0,0,1,1,2,2,3,3,4,4,6,6,7,7],"right_children":[2,4,6,8,10,-1,12,14,-1,-1,-1,-1,-1,-1,-1],"split_conditions":[1E0,5E0,5E0,3.1E1,1E0,-0E0,1.9E1,4.6E1,-0E0,-8.93383E-4,1.3316927E-2,5.009516E-2,6.384005E-3,-7.347034E-3,-5.781561E-2],"split_indices":[138,11,93,7,13,0,94,106,0,0,0,0,0,0,0],"split_type":[0,0,0,0,0,0,0,0,0,0,0,0,0,0,0],"sum_hessian":[9.4E1,5.7E1,3.7E1,3.4E1,2.3E1,1.6E1,2.1E1,2.1E1,1.3E1,1E1,1.3E1,1E1,1.1E1,1.1E1,1E1],"tree_param":{"num_deleted":"0","num_feature":"163","num_nodes":"15","size_leaf_vector":"1"}},{"base_weights":[-4.3216674E-3,6.4841084E-2,-4.1180715E-2,-6.1823506E-2,2.4004084E-1,-1.8572967E-1,4.276256E-2,3.9232942E-1,-0E0,-2.5459448E-2,-0E0,-9.010325E-3,1.541312E-2,1.3285065E-3,5.188815E-2],"categories":[],"categories_nodes":[],"categories_segments":[],"categories_sizes":[],"default_left":[0,0,0,0,0,0,0,0,0,0,0,0,0,0,0],"id":94,"left_children":[1,3,-1,5,7,9,11,13,-1,-1,-1,-1,-1,-1,-1],"loss_changes":[3.8268278E0,2.6345458E0,0E0,1.0647156E0,1.9482331E0,3.1380212E-1,7.799914E-1,8.8593435E-1,0E0,0E0,0E0,0E0,0E0,0E0,0E0],"parents":[2147483647,0,0,1,1,3,3,4,4,5,5,6,6,7,7],"right_children":[2,4,-1,6,8,10,12,14,-1,-1,-1,-1,-1,-1,-1],"split_conditions":[6.6E1,3.8E-1,-4.1180715E-2,1.66E2,2E1,1E0,1.59E2,3E1,-0E0,-2.5459448E-2,-0E0,-9.010325E-3,1.541312E-2,1.3285065E-3,5.188815E-2],"split_indices":[153,51,0,30,60,5,64,35,0,0,0,0,0,0,0],"split_type":[0,0,0,0,0,0,0,0,0,0,0,0,0,0,0],"sum_hessian":[1.04E2,9.4E1,1E1,5.5E1,3.9E1,2.6E1,2.9E1,2.1E1,1.8E1,1.4E1,1.2E1,1E1,1.9E1,1E1,1.1E1],"tree_param":{"num_deleted":"0","num_feature":"163","num_nodes":"15","size_leaf_vector":"1"}},{"base_weights":[-2.7300691E-2,3.507255E-2,-3.848725E-2,1.4238146E-1,-8.7151185E-2,-0E0,3.5024E-2,-1.5829295E-1,-0E0,-7.561493E-3,5.902518E-3,-0E0,-2.0588303E-2],"categories":[],"categories_nodes":[],"categories_segments":[],"categories_sizes":[],"default_left":[0,0,0,0,0,0,0,0,0,0,0,0,0],"id":95,"left_children":[1,3,-1,5,7,9,-1,11,-1,-1,-1,-1,-1],"loss_changes":[3.005014E0,1.5302341E0,0E0,1.9122027E0,4.4710323E-1,2.5666118E-1,0E0,1.05662405E-1,0E0,0E0,0E0,0E0,0E0],"parents":[2147483647,0,0,1,1,3,3,4,4,5,5,7,7],"right_children":[2,4,-1,6,8,10,-1,12,-1,-1,-1,-1,-1],"split_conditions":[6.25E2,1.1E1,-3.848725E-2,3E0,1.5E1,1E0,3.5024E-2,4.2E1,-0E0,-7.561493E-3,5.902518E-3,-0E0,-2.0588303E-2],"split_indices":[31,25,0,124,25,89,0,76,0,0,0,0,0],"split_type":[0,0,0,0,0,0,0,0,0,0,0,0,0],"sum_hessian":[1.03E2,9.3E1,1E1,5.3E1,4E1,3.7E1,1.6E1,2.3E1,1.7E1,1.6E1,2.1E1,1.1E1,1.2E1],"tree_param":{"num_deleted":"0","num_feature":"163","num_nodes":"13","size_leaf_vector":"1"}},